digraph Tree {
node [shape=box, style="filled", color="black", fontname="helvetica"] ;
edge [fontname="helvetica"] ;
0 [label="grade <= 8.5\nsquared_error = 135089564367.928\nsamples = 15129\nvalue = 539468.16", fillcolor="#fcf2ea"] ;
1 [label="lat <= 47.535\nsquared_error = 38682250458.557\nsamples = 12147\nvalue = 437020.207", fillcolor="#fdf5f0"] ;
0 -> 1 [labeldistance=2.5, labelangle=45, headlabel="True"] ;
2 [label="sqft_living <= 1938.0\nsquared_error = 13150205992.811\nsamples = 5159\nvalue = 315362.517", fillcolor="#fef9f6"] ;
1 -> 2 ;
3 [label="sqft_living <= 1535.0\nsquared_error = 7207441165.867\nsamples = 3249\nvalue = 271832.28", fillcolor="#fefbf9"] ;
2 -> 3 ;
4 [label="view <= 0.5\nsquared_error = 6020185275.215\nsamples = 1954\nvalue = 248604.406", fillcolor="#fefcfa"] ;
3 -> 4 ;
5 [label="lat <= 47.511\nsquared_error = 4836390834.739\nsamples = 1892\nvalue = 244100.38", fillcolor="#fefcfa"] ;
4 -> 5 ;
6 [label="sqft_living <= 1105.0\nsquared_error = 3778717053.727\nsamples = 1562\nvalue = 233975.666", fillcolor="#fefcfb"] ;
5 -> 6 ;
7 [label="sqft_living15 <= 1855.0\nsquared_error = 3462193007.021\nsamples = 507\nvalue = 204588.381", fillcolor="#fffdfc"] ;
6 -> 7 ;
8 [label="grade <= 6.5\nsquared_error = 2953801123.607\nsamples = 489\nvalue = 202032.227", fillcolor="#fffdfd"] ;
7 -> 8 ;
9 [label="lat <= 47.389\nsquared_error = 3206509057.593\nsamples = 320\nvalue = 192829.384", fillcolor="#fffefd"] ;
8 -> 9 ;
10 [label="bedrooms <= 2.5\nsquared_error = 1789493639.725\nsamples = 108\nvalue = 177758.185", fillcolor="#fffefe"] ;
9 -> 10 ;
11 [label="sqft_living <= 895.0\nsquared_error = 2220881132.254\nsamples = 47\nvalue = 166485.851", fillcolor="#ffffff"] ;
10 -> 11 ;
12 [label="squared_error = 2837621397.44\nsamples = 25\nvalue = 174471.6", fillcolor="#fffefe"] ;
11 -> 12 ;
13 [label="squared_error = 1365221081.663\nsamples = 22\nvalue = 157411.136", fillcolor="#ffffff"] ;
11 -> 13 ;
14 [label="sqft_living15 <= 1005.0\nsquared_error = 1283776761.72\nsamples = 61\nvalue = 186443.426", fillcolor="#fffefd"] ;
10 -> 14 ;
15 [label="squared_error = 1486354647.04\nsamples = 25\nvalue = 170523.6", fillcolor="#fffffe"] ;
14 -> 15 ;
16 [label="sqft_living15 <= 1130.0\nsquared_error = 844874432.064\nsamples = 36\nvalue = 197498.861", fillcolor="#fffefd"] ;
14 -> 16 ;
17 [label="squared_error = 777413542.75\nsamples = 20\nvalue = 189888.5", fillcolor="#fffefd"] ;
16 -> 17 ;
18 [label="squared_error = 766307304.277\nsamples = 16\nvalue = 207011.812", fillcolor="#fffdfc"] ;
16 -> 18 ;
19 [label="sqft_living <= 795.0\nsquared_error = 3753723157.176\nsamples = 212\nvalue = 200507.165", fillcolor="#fffdfd"] ;
9 -> 19 ;
20 [label="lat <= 47.477\nsquared_error = 3167748998.497\nsamples = 68\nvalue = 180938.059", fillcolor="#fffefe"] ;
19 -> 20 ;
21 [label="squared_error = 2876953125.0\nsamples = 16\nvalue = 200125.0", fillcolor="#fffefd"] ;
20 -> 21 ;
22 [label="sqft_living15 <= 1215.0\nsquared_error = 3109097832.967\nsamples = 52\nvalue = 175034.385", fillcolor="#fffefe"] ;
20 -> 22 ;
23 [label="sqft_living15 <= 1010.0\nsquared_error = 3036368280.322\nsamples = 34\nvalue = 180640.824", fillcolor="#fffefe"] ;
22 -> 23 ;
24 [label="squared_error = 2214753476.562\nsamples = 16\nvalue = 185268.75", fillcolor="#fffefd"] ;
23 -> 24 ;
25 [label="squared_error = 3730731961.877\nsamples = 18\nvalue = 176527.111", fillcolor="#fffefe"] ;
23 -> 25 ;
26 [label="squared_error = 3074957191.358\nsamples = 18\nvalue = 164444.444", fillcolor="#ffffff"] ;
22 -> 26 ;
27 [label="sqft_living15 <= 1365.0\nsquared_error = 3764200245.892\nsamples = 144\nvalue = 209748.132", fillcolor="#fffdfc"] ;
19 -> 27 ;
28 [label="lat <= 47.502\nsquared_error = 2501457974.254\nsamples = 103\nvalue = 198059.194", fillcolor="#fffefd"] ;
27 -> 28 ;
29 [label="lat <= 47.454\nsquared_error = 2454044142.387\nsamples = 87\nvalue = 203766.345", fillcolor="#fffdfc"] ;
28 -> 29 ;
30 [label="squared_error = 2890335954.59\nsamples = 16\nvalue = 188004.688", fillcolor="#fffefd"] ;
29 -> 30 ;
31 [label="lat <= 47.489\nsquared_error = 2287124515.661\nsamples = 71\nvalue = 207318.268", fillcolor="#fffdfc"] ;
29 -> 31 ;
32 [label="squared_error = 2420538058.872\nsamples = 28\nvalue = 221054.357", fillcolor="#fffdfc"] ;
31 -> 32 ;
33 [label="sqft_living <= 950.0\nsquared_error = 1997386248.648\nsamples = 43\nvalue = 198373.837", fillcolor="#fffefd"] ;
31 -> 33 ;
34 [label="squared_error = 2023319398.148\nsamples = 27\nvalue = 189608.333", fillcolor="#fffefd"] ;
33 -> 34 ;
35 [label="squared_error = 1605169599.609\nsamples = 16\nvalue = 213165.625", fillcolor="#fffdfc"] ;
33 -> 35 ;
36 [label="squared_error = 1619138552.246\nsamples = 16\nvalue = 167026.562", fillcolor="#fffffe"] ;
28 -> 36 ;
37 [label="lat <= 47.475\nsquared_error = 5730913912.219\nsamples = 41\nvalue = 239113.024", fillcolor="#fefcfb"] ;
27 -> 37 ;
38 [label="squared_error = 10334517961.484\nsamples = 16\nvalue = 264027.125", fillcolor="#fefbf9"] ;
37 -> 38 ;
39 [label="squared_error = 2133107576.0\nsamples = 25\nvalue = 223168.0", fillcolor="#fffdfb"] ;
37 -> 39 ;
40 [label="lat <= 47.409\nsquared_error = 2011288673.287\nsamples = 169\nvalue = 219457.728", fillcolor="#fffdfc"] ;
8 -> 40 ;
41 [label="sqft_living <= 985.0\nsquared_error = 1777766502.221\nsamples = 101\nvalue = 206083.594", fillcolor="#fffdfc"] ;
40 -> 41 ;
42 [label="squared_error = 1154109239.001\nsamples = 29\nvalue = 179727.586", fillcolor="#fffefe"] ;
41 -> 42 ;
43 [label="sqft_living15 <= 1375.0\nsquared_error = 1636485309.22\nsamples = 72\nvalue = 216699.208", fillcolor="#fffdfc"] ;
41 -> 43 ;
44 [label="sqft_living15 <= 1225.0\nsquared_error = 593963103.765\nsamples = 33\nvalue = 205965.152", fillcolor="#fffdfc"] ;
43 -> 44 ;
45 [label="squared_error = 553080615.234\nsamples = 16\nvalue = 211628.125", fillcolor="#fffdfc"] ;
44 -> 45 ;
46 [label="squared_error = 573850519.031\nsamples = 17\nvalue = 200635.294", fillcolor="#fffdfd"] ;
44 -> 46 ;
47 [label="lat <= 47.333\nsquared_error = 2338630881.855\nsamples = 39\nvalue = 225781.872", fillcolor="#fffdfb"] ;
43 -> 47 ;
48 [label="squared_error = 3290532469.136\nsamples = 18\nvalue = 214694.444", fillcolor="#fffdfc"] ;
47 -> 48 ;
49 [label="squared_error = 1327029081.95\nsamples = 21\nvalue = 235285.381", fillcolor="#fefcfb"] ;
47 -> 49 ;
50 [label="sqft_living15 <= 1450.0\nsquared_error = 1697867761.835\nsamples = 68\nvalue = 239322.25", fillcolor="#fefcfa"] ;
40 -> 50 ;
51 [label="lat <= 47.49\nsquared_error = 1540829354.741\nsamples = 52\nvalue = 232829.096", fillcolor="#fefcfb"] ;
50 -> 51 ;
52 [label="lat <= 47.454\nsquared_error = 1148280043.335\nsamples = 32\nvalue = 222521.094", fillcolor="#fffdfb"] ;
51 -> 52 ;
53 [label="squared_error = 188896630.859\nsamples = 16\nvalue = 234059.375", fillcolor="#fefcfb"] ;
52 -> 53 ;
54 [label="squared_error = 1841399587.402\nsamples = 16\nvalue = 210982.812", fillcolor="#fffdfc"] ;
52 -> 54 ;
55 [label="squared_error = 1726887812.59\nsamples = 20\nvalue = 249321.9", fillcolor="#fefcfa"] ;
51 -> 55 ;
56 [label="squared_error = 1625893125.0\nsamples = 16\nvalue = 260425.0", fillcolor="#fefbf9"] ;
50 -> 56 ;
57 [label="squared_error = 12273785316.358\nsamples = 18\nvalue = 274030.556", fillcolor="#fefbf9"] ;
7 -> 57 ;
58 [label="sqft_living15 <= 1395.0\nsquared_error = 3316355301.87\nsamples = 1055\nvalue = 248098.277", fillcolor="#fefcfa"] ;
6 -> 58 ;
59 [label="lat <= 47.424\nsquared_error = 2112901591.662\nsamples = 408\nvalue = 227502.596", fillcolor="#fefdfb"] ;
58 -> 59 ;
60 [label="bathrooms <= 1.25\nsquared_error = 1359860843.04\nsamples = 218\nvalue = 213012.156", fillcolor="#fffdfc"] ;
59 -> 60 ;
61 [label="lat <= 47.356\nsquared_error = 1375841490.654\nsamples = 95\nvalue = 198910.632", fillcolor="#fffefd"] ;
60 -> 61 ;
62 [label="lat <= 47.324\nsquared_error = 1227837930.666\nsamples = 69\nvalue = 202770.362", fillcolor="#fffdfd"] ;
61 -> 62 ;
63 [label="sqft_above <= 1210.0\nsquared_error = 998713224.989\nsamples = 47\nvalue = 197004.894", fillcolor="#fffefd"] ;
62 -> 63 ;
64 [label="squared_error = 749531541.95\nsamples = 21\nvalue = 189452.381", fillcolor="#fffefd"] ;
63 -> 64 ;
65 [label="squared_error = 1116692925.0\nsamples = 26\nvalue = 203105.0", fillcolor="#fffdfc"] ;
63 -> 65 ;
66 [label="squared_error = 1494605667.614\nsamples = 22\nvalue = 215087.5", fillcolor="#fffdfc"] ;
62 -> 66 ;
67 [label="squared_error = 1624162694.712\nsamples = 26\nvalue = 188667.5", fillcolor="#fffefd"] ;
61 -> 67 ;
68 [label="sqft_living <= 1305.0\nsquared_error = 1075309366.439\nsamples = 123\nvalue = 223903.577", fillcolor="#fffdfb"] ;
60 -> 68 ;
69 [label="sqft_living15 <= 1315.0\nsquared_error = 916939152.15\nsamples = 57\nvalue = 213097.088", fillcolor="#fffdfc"] ;
68 -> 69 ;
70 [label="sqft_above <= 1235.0\nsquared_error = 872873076.05\nsamples = 41\nvalue = 207303.268", fillcolor="#fffdfc"] ;
69 -> 70 ;
71 [label="squared_error = 717875566.63\nsamples = 25\nvalue = 213709.36", fillcolor="#fffdfc"] ;
70 -> 71 ;
72 [label="squared_error = 950744335.938\nsamples = 16\nvalue = 197293.75", fillcolor="#fffefd"] ;
70 -> 72 ;
73 [label="squared_error = 723416210.938\nsamples = 16\nvalue = 227943.75", fillcolor="#fefdfb"] ;
69 -> 73 ;
74 [label="lat <= 47.316\nsquared_error = 1024125402.733\nsamples = 66\nvalue = 233236.455", fillcolor="#fefcfb"] ;
68 -> 74 ;
75 [label="squared_error = 1456823438.231\nsamples = 29\nvalue = 224049.897", fillcolor="#fffdfb"] ;
74 -> 75 ;
76 [label="bathrooms <= 1.875\nsquared_error = 566993990.954\nsamples = 37\nvalue = 240436.73", fillcolor="#fefcfa"] ;
74 -> 76 ;
77 [label="squared_error = 613090108.847\nsamples = 20\nvalue = 234450.45", fillcolor="#fefcfb"] ;
76 -> 77 ;
78 [label="squared_error = 421004429.066\nsamples = 17\nvalue = 247479.412", fillcolor="#fefcfa"] ;
76 -> 78 ;
79 [label="bathrooms <= 1.25\nsquared_error = 2459580912.449\nsamples = 190\nvalue = 244128.468", fillcolor="#fefcfa"] ;
59 -> 79 ;
80 [label="sqft_living15 <= 1325.0\nsquared_error = 2153543518.34\nsamples = 110\nvalue = 230542.264", fillcolor="#fefcfb"] ;
79 -> 80 ;
81 [label="sqft_living15 <= 1184.0\nsquared_error = 2086026097.912\nsamples = 90\nvalue = 226836.1", fillcolor="#fefdfb"] ;
80 -> 81 ;
82 [label="sqft_living15 <= 1125.0\nsquared_error = 2261330200.877\nsamples = 37\nvalue = 238601.351", fillcolor="#fefcfb"] ;
81 -> 82 ;
83 [label="squared_error = 1371250368.75\nsamples = 20\nvalue = 223247.5", fillcolor="#fffdfb"] ;
82 -> 83 ;
84 [label="squared_error = 2704856107.266\nsamples = 17\nvalue = 256664.706", fillcolor="#fefcfa"] ;
82 -> 84 ;
85 [label="sqft_living15 <= 1235.0\nsquared_error = 1799549152.386\nsamples = 53\nvalue = 218622.623", fillcolor="#fffdfc"] ;
81 -> 85 ;
86 [label="squared_error = 1544775828.028\nsamples = 19\nvalue = 197734.158", fillcolor="#fffefd"] ;
85 -> 86 ;
87 [label="sqft_living15 <= 1295.0\nsquared_error = 1561834024.654\nsamples = 34\nvalue = 230295.588", fillcolor="#fefcfb"] ;
85 -> 87 ;
88 [label="squared_error = 1150197847.222\nsamples = 18\nvalue = 244041.667", fillcolor="#fefcfa"] ;
87 -> 88 ;
89 [label="squared_error = 1573204960.938\nsamples = 16\nvalue = 214831.25", fillcolor="#fffdfc"] ;
87 -> 89 ;
90 [label="squared_error = 2117414600.0\nsamples = 20\nvalue = 247220.0", fillcolor="#fefcfa"] ;
80 -> 90 ;
91 [label="sqft_living <= 1235.0\nsquared_error = 2277597067.875\nsamples = 80\nvalue = 262809.5", fillcolor="#fefbf9"] ;
79 -> 91 ;
92 [label="squared_error = 2947371563.498\nsamples = 24\nvalue = 246750.208", fillcolor="#fefcfa"] ;
91 -> 92 ;
93 [label="sqft_living <= 1355.0\nsquared_error = 1832652376.586\nsamples = 56\nvalue = 269692.054", fillcolor="#fefbf9"] ;
91 -> 93 ;
94 [label="squared_error = 1592971114.54\nsamples = 24\nvalue = 287562.708", fillcolor="#fefaf8"] ;
93 -> 94 ;
95 [label="sqft_above <= 1385.0\nsquared_error = 1593252927.246\nsamples = 32\nvalue = 256289.062", fillcolor="#fefcfa"] ;
93 -> 95 ;
96 [label="squared_error = 811925927.734\nsamples = 16\nvalue = 245621.875", fillcolor="#fefcfa"] ;
95 -> 96 ;
97 [label="squared_error = 2147002148.438\nsamples = 16\nvalue = 266956.25", fillcolor="#fefbf9"] ;
95 -> 97 ;
98 [label="lat <= 47.434\nsquared_error = 3639085965.865\nsamples = 647\nvalue = 261085.971", fillcolor="#fefbf9"] ;
58 -> 98 ;
99 [label="sqft_living15 <= 1855.0\nsquared_error = 2846371932.149\nsamples = 403\nvalue = 250252.538", fillcolor="#fefcfa"] ;
98 -> 99 ;
100 [label="bathrooms <= 1.625\nsquared_error = 1737660340.25\nsamples = 332\nvalue = 243024.512", fillcolor="#fefcfa"] ;
99 -> 100 ;
101 [label="sqft_living <= 1175.0\nsquared_error = 2534846688.577\nsamples = 110\nvalue = 228606.073", fillcolor="#fefdfb"] ;
100 -> 101 ;
102 [label="squared_error = 6427475585.938\nsamples = 16\nvalue = 255368.75", fillcolor="#fefcfa"] ;
101 -> 102 ;
103 [label="lat <= 47.315\nsquared_error = 1729607005.86\nsamples = 94\nvalue = 224050.723", fillcolor="#fffdfb"] ;
101 -> 103 ;
104 [label="squared_error = 936486452.449\nsamples = 30\nvalue = 207990.867", fillcolor="#fffdfc"] ;
103 -> 104 ;
105 [label="sqft_living15 <= 1475.0\nsquared_error = 1923811079.827\nsamples = 64\nvalue = 231578.781", fillcolor="#fefcfb"] ;
103 -> 105 ;
106 [label="squared_error = 1524269400.998\nsamples = 23\nvalue = 219697.043", fillcolor="#fffdfc"] ;
105 -> 106 ;
107 [label="sqft_living15 <= 1640.0\nsquared_error = 2024321004.759\nsamples = 41\nvalue = 238244.146", fillcolor="#fefcfb"] ;
105 -> 107 ;
108 [label="squared_error = 1391466042.24\nsamples = 25\nvalue = 247472.4", fillcolor="#fefcfa"] ;
107 -> 108 ;
109 [label="squared_error = 2672181562.5\nsamples = 16\nvalue = 223825.0", fillcolor="#fffdfb"] ;
107 -> 109 ;
110 [label="lat <= 47.345\nsquared_error = 1188608228.44\nsamples = 222\nvalue = 250168.784", fillcolor="#fefcfa"] ;
100 -> 110 ;
111 [label="sqft_living15 <= 1595.0\nsquared_error = 1251564397.274\nsamples = 88\nvalue = 240084.648", fillcolor="#fefcfa"] ;
110 -> 111 ;
112 [label="sqft_above <= 1295.0\nsquared_error = 915167770.854\nsamples = 48\nvalue = 225666.646", fillcolor="#fffdfb"] ;
111 -> 112 ;
113 [label="squared_error = 888072723.765\nsamples = 18\nvalue = 209236.111", fillcolor="#fffdfc"] ;
112 -> 113 ;
114 [label="squared_error = 672260826.699\nsamples = 30\nvalue = 235524.967", fillcolor="#fefcfb"] ;
112 -> 114 ;
115 [label="sqft_above <= 1405.0\nsquared_error = 1106440373.438\nsamples = 40\nvalue = 257386.25", fillcolor="#fefcfa"] ;
111 -> 115 ;
116 [label="squared_error = 1382908875.236\nsamples = 23\nvalue = 264528.261", fillcolor="#fefbf9"] ;
115 -> 116 ;
117 [label="squared_error = 570015328.72\nsamples = 17\nvalue = 247723.529", fillcolor="#fefcfa"] ;
115 -> 117 ;
118 [label="sqft_living <= 1325.0\nsquared_error = 1036626101.25\nsamples = 134\nvalue = 256791.201", fillcolor="#fefcfa"] ;
110 -> 118 ;
119 [label="sqft_living15 <= 1565.0\nsquared_error = 957669795.417\nsamples = 36\nvalue = 244348.5", fillcolor="#fefcfa"] ;
118 -> 119 ;
120 [label="squared_error = 991611820.988\nsamples = 18\nvalue = 238711.111", fillcolor="#fefcfb"] ;
119 -> 120 ;
121 [label="squared_error = 860167462.877\nsamples = 18\nvalue = 249985.889", fillcolor="#fefcfa"] ;
119 -> 121 ;
122 [label="lat <= 47.4\nsquared_error = 987865398.337\nsamples = 98\nvalue = 261361.99", fillcolor="#fefbf9"] ;
118 -> 122 ;
123 [label="lat <= 47.372\nsquared_error = 539293242.624\nsamples = 78\nvalue = 257015.064", fillcolor="#fefcfa"] ;
122 -> 123 ;
124 [label="sqft_living <= 1445.0\nsquared_error = 432412416.295\nsamples = 56\nvalue = 260843.75", fillcolor="#fefbf9"] ;
123 -> 124 ;
125 [label="squared_error = 542384856.0\nsamples = 25\nvalue = 254112.0", fillcolor="#fefcfa"] ;
124 -> 125 ;
126 [label="squared_error = 277707232.05\nsamples = 31\nvalue = 266272.581", fillcolor="#fefbf9"] ;
124 -> 126 ;
127 [label="squared_error = 679060564.308\nsamples = 22\nvalue = 247269.318", fillcolor="#fefcfa"] ;
123 -> 127 ;
128 [label="squared_error = 2376198775.0\nsamples = 20\nvalue = 278315.0", fillcolor="#fefbf8"] ;
122 -> 128 ;
129 [label="grade <= 7.5\nsquared_error = 6644122869.144\nsamples = 71\nvalue = 284051.197", fillcolor="#fefbf8"] ;
99 -> 129 ;
130 [label="sqft_above <= 1245.0\nsquared_error = 6162735380.432\nsamples = 55\nvalue = 275606.691", fillcolor="#fefbf9"] ;
129 -> 130 ;
131 [label="squared_error = 1870960549.41\nsamples = 20\nvalue = 239588.3", fillcolor="#fefcfa"] ;
130 -> 131 ;
132 [label="sqft_living15 <= 1975.0\nsquared_error = 7450233706.691\nsamples = 35\nvalue = 296188.629", fillcolor="#fefaf7"] ;
130 -> 132 ;
133 [label="squared_error = 11998716061.875\nsamples = 16\nvalue = 323739.0", fillcolor="#fef9f6"] ;
132 -> 133 ;
134 [label="squared_error = 2442501028.427\nsamples = 19\nvalue = 272988.316", fillcolor="#fefbf9"] ;
132 -> 134 ;
135 [label="squared_error = 7211141093.402\nsamples = 16\nvalue = 313079.188", fillcolor="#fefaf6"] ;
129 -> 135 ;
136 [label="grade <= 6.5\nsquared_error = 4434365200.439\nsamples = 244\nvalue = 278978.893", fillcolor="#fefbf8"] ;
98 -> 136 ;
137 [label="lat <= 47.486\nsquared_error = 5461496528.258\nsamples = 51\nvalue = 252341.765", fillcolor="#fefcfa"] ;
136 -> 137 ;
138 [label="squared_error = 7145399707.84\nsamples = 26\nvalue = 274201.923", fillcolor="#fefbf9"] ;
137 -> 138 ;
139 [label="squared_error = 2696395604.16\nsamples = 25\nvalue = 229607.2", fillcolor="#fefcfb"] ;
137 -> 139 ;
140 [label="bathrooms <= 1.625\nsquared_error = 3925907860.637\nsamples = 193\nvalue = 286017.72", fillcolor="#fefbf8"] ;
136 -> 140 ;
141 [label="sqft_living <= 1255.0\nsquared_error = 4023608476.376\nsamples = 110\nvalue = 275582.264", fillcolor="#fefbf9"] ;
140 -> 141 ;
142 [label="squared_error = 2734025025.598\nsamples = 31\nvalue = 246865.419", fillcolor="#fefcfa"] ;
141 -> 142 ;
143 [label="bathrooms <= 1.25\nsquared_error = 4079065775.661\nsamples = 79\nvalue = 286850.899", fillcolor="#fefaf8"] ;
141 -> 143 ;
144 [label="lat <= 47.474\nsquared_error = 4603630961.0\nsamples = 50\nvalue = 276517.0", fillcolor="#fefbf8"] ;
143 -> 144 ;
145 [label="squared_error = 6788507847.222\nsamples = 18\nvalue = 301941.667", fillcolor="#fefaf7"] ;
144 -> 145 ;
146 [label="lat <= 47.492\nsquared_error = 2806500693.359\nsamples = 32\nvalue = 262215.625", fillcolor="#fefbf9"] ;
144 -> 146 ;
147 [label="squared_error = 2501312500.0\nsamples = 16\nvalue = 250750.0", fillcolor="#fefcfa"] ;
146 -> 147 ;
148 [label="squared_error = 2848767773.438\nsamples = 16\nvalue = 273681.25", fillcolor="#fefbf9"] ;
146 -> 148 ;
149 [label="squared_error = 2673075409.688\nsamples = 29\nvalue = 304667.966", fillcolor="#fefaf7"] ;
143 -> 149 ;
150 [label="sqft_living <= 1385.0\nsquared_error = 3460829160.421\nsamples = 83\nvalue = 299847.843", fillcolor="#fefaf7"] ;
140 -> 150 ;
151 [label="sqft_above <= 1225.0\nsquared_error = 4385423263.889\nsamples = 36\nvalue = 319728.333", fillcolor="#fef9f6"] ;
150 -> 151 ;
152 [label="squared_error = 5635191396.484\nsamples = 16\nvalue = 342903.125", fillcolor="#fef9f5"] ;
151 -> 152 ;
153 [label="squared_error = 2612226562.75\nsamples = 20\nvalue = 301188.5", fillcolor="#fefaf7"] ;
151 -> 153 ;
154 [label="lat <= 47.478\nsquared_error = 2218017001.243\nsamples = 47\nvalue = 284620.234", fillcolor="#fefbf8"] ;
150 -> 154 ;
155 [label="squared_error = 2166977250.499\nsamples = 31\nvalue = 276004.871", fillcolor="#fefbf8"] ;
154 -> 155 ;
156 [label="squared_error = 1894464843.75\nsamples = 16\nvalue = 301312.5", fillcolor="#fefaf7"] ;
154 -> 156 ;
157 [label="sqft_living <= 995.0\nsquared_error = 7060824551.878\nsamples = 330\nvalue = 292024.024", fillcolor="#fefaf8"] ;
5 -> 157 ;
158 [label="sqft_living <= 685.0\nsquared_error = 5244049437.418\nsamples = 121\nvalue = 244719.769", fillcolor="#fefcfa"] ;
157 -> 158 ;
159 [label="squared_error = 5311339706.994\nsamples = 23\nvalue = 197141.304", fillcolor="#fffefd"] ;
158 -> 159 ;
160 [label="sqft_living15 <= 1425.0\nsquared_error = 4572289970.367\nsamples = 98\nvalue = 255886.143", fillcolor="#fefcfa"] ;
158 -> 160 ;
161 [label="sqft_living15 <= 1130.0\nsquared_error = 3357690107.162\nsamples = 75\nvalue = 244347.227", fillcolor="#fefcfa"] ;
160 -> 161 ;
162 [label="sqft_living15 <= 995.0\nsquared_error = 2978695876.144\nsamples = 49\nvalue = 251520.245", fillcolor="#fefcfa"] ;
161 -> 162 ;
163 [label="squared_error = 3121281715.087\nsamples = 28\nvalue = 240858.643", fillcolor="#fefcfa"] ;
162 -> 163 ;
164 [label="squared_error = 2434942176.871\nsamples = 21\nvalue = 265735.714", fillcolor="#fefbf9"] ;
162 -> 164 ;
165 [label="squared_error = 3792234264.053\nsamples = 26\nvalue = 230828.846", fillcolor="#fefcfb"] ;
161 -> 165 ;
166 [label="squared_error = 6682984395.085\nsamples = 23\nvalue = 293513.043", fillcolor="#fefaf8"] ;
160 -> 166 ;
167 [label="sqft_living15 <= 1655.0\nsquared_error = 6067105549.512\nsamples = 209\nvalue = 319410.699", fillcolor="#fef9f6"] ;
157 -> 167 ;
168 [label="sqft_above <= 1091.0\nsquared_error = 5189756565.388\nsamples = 177\nvalue = 307661.955", fillcolor="#fefaf7"] ;
167 -> 168 ;
169 [label="lat <= 47.519\nsquared_error = 4803371647.966\nsamples = 78\nvalue = 287588.538", fillcolor="#fefaf8"] ;
168 -> 169 ;
170 [label="squared_error = 3014266580.587\nsamples = 19\nvalue = 251017.789", fillcolor="#fefcfa"] ;
169 -> 170 ;
171 [label="sqft_basement <= 375.0\nsquared_error = 4810131433.23\nsamples = 59\nvalue = 299365.559", fillcolor="#fefaf7"] ;
169 -> 171 ;
172 [label="lat <= 47.528\nsquared_error = 5065677965.928\nsamples = 38\nvalue = 287991.579", fillcolor="#fefaf8"] ;
171 -> 172 ;
173 [label="squared_error = 5015576849.691\nsamples = 18\nvalue = 319429.444", fillcolor="#fef9f6"] ;
172 -> 173 ;
174 [label="squared_error = 3420708618.75\nsamples = 20\nvalue = 259697.5", fillcolor="#fefbf9"] ;
172 -> 174 ;
175 [label="squared_error = 3690022793.379\nsamples = 21\nvalue = 319947.048", fillcolor="#fef9f6"] ;
171 -> 175 ;
176 [label="lat <= 47.529\nsquared_error = 4926584080.8\nsamples = 99\nvalue = 323477.374", fillcolor="#fef9f6"] ;
168 -> 176 ;
177 [label="bathrooms <= 1.25\nsquared_error = 4512159555.227\nsamples = 61\nvalue = 308722.951", fillcolor="#fefaf7"] ;
176 -> 177 ;
178 [label="sqft_living <= 1265.0\nsquared_error = 2913692125.803\nsamples = 33\nvalue = 286662.121", fillcolor="#fefaf8"] ;
177 -> 178 ;
179 [label="squared_error = 3078897716.263\nsamples = 17\nvalue = 277291.176", fillcolor="#fefbf8"] ;
178 -> 179 ;
180 [label="squared_error = 2545723710.938\nsamples = 16\nvalue = 296618.75", fillcolor="#fefaf7"] ;
178 -> 180 ;
181 [label="squared_error = 5146466514.668\nsamples = 28\nvalue = 334723.214", fillcolor="#fef9f5"] ;
177 -> 181 ;
182 [label="sqft_above <= 1205.0\nsquared_error = 4681423450.357\nsamples = 38\nvalue = 347162.105", fillcolor="#fef8f5"] ;
176 -> 182 ;
183 [label="squared_error = 3387920804.535\nsamples = 21\nvalue = 326729.81", fillcolor="#fef9f6"] ;
182 -> 183 ;
184 [label="squared_error = 5126518379.882\nsamples = 17\nvalue = 372402.0", fillcolor="#fdf7f3"] ;
182 -> 184 ;
185 [label="lat <= 47.528\nsquared_error = 5933365917.871\nsamples = 32\nvalue = 384395.938", fillcolor="#fdf7f3"] ;
167 -> 185 ;
186 [label="squared_error = 3885071662.109\nsamples = 16\nvalue = 401885.625", fillcolor="#fdf6f2"] ;
185 -> 186 ;
187 [label="squared_error = 7369881835.938\nsamples = 16\nvalue = 366906.25", fillcolor="#fdf8f3"] ;
185 -> 187 ;
188 [label="view <= 2.5\nsquared_error = 22634704372.555\nsamples = 62\nvalue = 386049.839", fillcolor="#fdf7f2"] ;
4 -> 188 ;
189 [label="lat <= 47.504\nsquared_error = 18127123307.555\nsamples = 41\nvalue = 343725.61", fillcolor="#fef8f5"] ;
188 -> 189 ;
190 [label="squared_error = 5978821600.0\nsamples = 25\nvalue = 291280.0", fillcolor="#fefaf8"] ;
189 -> 190 ;
191 [label="squared_error = 26095932490.234\nsamples = 16\nvalue = 425671.875", fillcolor="#fdf6f0"] ;
189 -> 191 ;
192 [label="squared_error = 21109625258.503\nsamples = 21\nvalue = 468682.857", fillcolor="#fdf4ee"] ;
188 -> 192 ;
193 [label="lat <= 47.412\nsquared_error = 6956407700.435\nsamples = 1295\nvalue = 306880.362", fillcolor="#fefaf7"] ;
3 -> 193 ;
194 [label="view <= 1.5\nsquared_error = 3068472501.633\nsamples = 689\nvalue = 274846.984", fillcolor="#fefbf9"] ;
193 -> 194 ;
195 [label="sqft_living15 <= 1825.0\nsquared_error = 2297300203.674\nsamples = 668\nvalue = 271629.838", fillcolor="#fefbf9"] ;
194 -> 195 ;
196 [label="grade <= 6.5\nsquared_error = 1712569250.263\nsamples = 404\nvalue = 257287.094", fillcolor="#fefcfa"] ;
195 -> 196 ;
197 [label="squared_error = 1296781750.083\nsamples = 24\nvalue = 217466.5", fillcolor="#fffdfc"] ;
196 -> 197 ;
198 [label="bathrooms <= 1.875\nsquared_error = 1632356172.157\nsamples = 380\nvalue = 259802.079", fillcolor="#fefbf9"] ;
196 -> 198 ;
199 [label="sqft_living <= 1735.0\nsquared_error = 1920993677.143\nsamples = 134\nvalue = 249189.284", fillcolor="#fefcfa"] ;
198 -> 199 ;
200 [label="sqft_living15 <= 1465.0\nsquared_error = 1122199498.641\nsamples = 84\nvalue = 239080.048", fillcolor="#fefcfb"] ;
199 -> 200 ;
201 [label="squared_error = 822339976.0\nsamples = 25\nvalue = 221507.0", fillcolor="#fffdfb"] ;
200 -> 201 ;
202 [label="lat <= 47.362\nsquared_error = 1062960081.918\nsamples = 59\nvalue = 246526.254", fillcolor="#fefcfa"] ;
200 -> 202 ;
203 [label="sqft_above <= 1210.0\nsquared_error = 968934341.649\nsamples = 40\nvalue = 237957.475", fillcolor="#fefcfb"] ;
202 -> 203 ;
204 [label="squared_error = 561314074.277\nsamples = 16\nvalue = 245171.812", fillcolor="#fefcfa"] ;
203 -> 204 ;
205 [label="squared_error = 1182851558.16\nsamples = 24\nvalue = 233147.917", fillcolor="#fefcfb"] ;
203 -> 205 ;
206 [label="squared_error = 780907382.271\nsamples = 19\nvalue = 264565.789", fillcolor="#fefbf9"] ;
202 -> 206 ;
207 [label="sqft_above <= 1830.0\nsquared_error = 2802837692.16\nsamples = 50\nvalue = 266172.8", fillcolor="#fefbf9"] ;
199 -> 207 ;
208 [label="sqft_basement <= 470.0\nsquared_error = 3295837523.616\nsamples = 34\nvalue = 277226.176", fillcolor="#fefbf8"] ;
207 -> 208 ;
209 [label="squared_error = 4651961240.83\nsamples = 17\nvalue = 293549.412", fillcolor="#fefaf8"] ;
208 -> 209 ;
210 [label="squared_error = 1406817785.467\nsamples = 17\nvalue = 260902.941", fillcolor="#fefbf9"] ;
208 -> 210 ;
211 [label="squared_error = 943880537.109\nsamples = 16\nvalue = 242684.375", fillcolor="#fefcfa"] ;
207 -> 211 ;
212 [label="sqft_living <= 1855.0\nsquared_error = 1380359363.064\nsamples = 246\nvalue = 265583.033", fillcolor="#fefbf9"] ;
198 -> 212 ;
213 [label="lat <= 47.319\nsquared_error = 1275387684.293\nsamples = 222\nvalue = 263392.459", fillcolor="#fefbf9"] ;
212 -> 213 ;
214 [label="sqft_living15 <= 1560.0\nsquared_error = 750255416.964\nsamples = 70\nvalue = 255242.5", fillcolor="#fefcfa"] ;
213 -> 214 ;
215 [label="squared_error = 721849891.493\nsamples = 24\nvalue = 245864.583", fillcolor="#fefcfa"] ;
214 -> 215 ;
216 [label="bathrooms <= 2.375\nsquared_error = 695251428.698\nsamples = 46\nvalue = 260135.326", fillcolor="#fefbf9"] ;
214 -> 216 ;
217 [label="squared_error = 1002217222.222\nsamples = 24\nvalue = 253941.667", fillcolor="#fefcfa"] ;
216 -> 217 ;
218 [label="squared_error = 272877578.771\nsamples = 22\nvalue = 266892.045", fillcolor="#fefbf9"] ;
216 -> 218 ;
219 [label="sqft_living <= 1575.0\nsquared_error = 1472548866.052\nsamples = 152\nvalue = 267145.73", fillcolor="#fefbf9"] ;
213 -> 219 ;
220 [label="squared_error = 2851453304.498\nsamples = 17\nvalue = 287991.176", fillcolor="#fefaf8"] ;
219 -> 220 ;
221 [label="sqft_living15 <= 1755.0\nsquared_error = 1237299593.3\nsamples = 135\nvalue = 264520.748", fillcolor="#fefbf9"] ;
219 -> 221 ;
222 [label="lat <= 47.379\nsquared_error = 1147344300.449\nsamples = 112\nvalue = 261429.92", fillcolor="#fefbf9"] ;
221 -> 222 ;
223 [label="sqft_above <= 1615.0\nsquared_error = 964788736.505\nsamples = 92\nvalue = 264172.804", fillcolor="#fefbf9"] ;
222 -> 223 ;
224 [label="sqft_living <= 1635.0\nsquared_error = 704444404.051\nsamples = 44\nvalue = 254502.25", fillcolor="#fefcfa"] ;
223 -> 224 ;
225 [label="squared_error = 562751718.75\nsamples = 24\nvalue = 264487.5", fillcolor="#fefbf9"] ;
224 -> 225 ;
226 [label="squared_error = 611253852.048\nsamples = 20\nvalue = 242519.95", fillcolor="#fefcfa"] ;
224 -> 226 ;
227 [label="sqft_living15 <= 1585.0\nsquared_error = 1039128928.666\nsamples = 48\nvalue = 273037.479", fillcolor="#fefbf9"] ;
223 -> 227 ;
228 [label="squared_error = 1218241281.705\nsamples = 23\nvalue = 278108.652", fillcolor="#fefbf8"] ;
227 -> 228 ;
229 [label="squared_error = 828919416.0\nsamples = 25\nvalue = 268372.0", fillcolor="#fefbf9"] ;
227 -> 229 ;
230 [label="squared_error = 1793296685.427\nsamples = 20\nvalue = 248812.65", fillcolor="#fefcfa"] ;
222 -> 230 ;
231 [label="squared_error = 1402290396.975\nsamples = 23\nvalue = 279571.739", fillcolor="#fefbf8"] ;
221 -> 231 ;
232 [label="squared_error = 1896379149.306\nsamples = 24\nvalue = 285845.833", fillcolor="#fefbf8"] ;
212 -> 232 ;
233 [label="lat <= 47.327\nsquared_error = 2395563109.486\nsamples = 264\nvalue = 293578.583", fillcolor="#fefaf8"] ;
195 -> 233 ;
234 [label="sqft_above <= 1805.0\nsquared_error = 2223957251.017\nsamples = 86\nvalue = 272491.477", fillcolor="#fefbf9"] ;
233 -> 234 ;
235 [label="grade <= 7.5\nsquared_error = 1790505819.145\nsamples = 56\nvalue = 262592.125", fillcolor="#fefbf9"] ;
234 -> 235 ;
236 [label="squared_error = 2315881934.652\nsamples = 26\nvalue = 273577.038", fillcolor="#fefbf9"] ;
235 -> 236 ;
237 [label="squared_error = 1139965319.716\nsamples = 30\nvalue = 253071.867", fillcolor="#fefcfa"] ;
235 -> 237 ;
238 [label="squared_error = 2508672872.262\nsamples = 30\nvalue = 290970.267", fillcolor="#fefaf8"] ;
234 -> 238 ;
239 [label="sqft_above <= 1205.0\nsquared_error = 2159836691.026\nsamples = 178\nvalue = 303766.736", fillcolor="#fefaf7"] ;
233 -> 239 ;
240 [label="squared_error = 1535047197.232\nsamples = 17\nvalue = 271447.059", fillcolor="#fefbf9"] ;
239 -> 240 ;
241 [label="bathrooms <= 1.875\nsquared_error = 2103866846.308\nsamples = 161\nvalue = 307179.373", fillcolor="#fefaf7"] ;
239 -> 241 ;
242 [label="squared_error = 5416414180.695\nsamples = 31\nvalue = 326872.581", fillcolor="#fef9f6"] ;
241 -> 242 ;
243 [label="lat <= 47.344\nsquared_error = 1199417878.425\nsamples = 130\nvalue = 302483.3", fillcolor="#fefaf7"] ;
241 -> 243 ;
244 [label="squared_error = 345877177.734\nsamples = 16\nvalue = 277471.875", fillcolor="#fefbf8"] ;
243 -> 244 ;
245 [label="sqft_above <= 1715.0\nsquared_error = 1219090836.763\nsamples = 114\nvalue = 305993.675", fillcolor="#fefaf7"] ;
243 -> 245 ;
246 [label="sqft_living15 <= 1967.5\nsquared_error = 959982881.771\nsamples = 48\nvalue = 292931.25", fillcolor="#fefaf8"] ;
245 -> 246 ;
247 [label="squared_error = 469708139.793\nsamples = 26\nvalue = 283805.769", fillcolor="#fefbf8"] ;
246 -> 247 ;
248 [label="squared_error = 1324674415.083\nsamples = 22\nvalue = 303715.909", fillcolor="#fefaf7"] ;
246 -> 248 ;
249 [label="grade <= 7.5\nsquared_error = 1193191682.811\nsamples = 66\nvalue = 315493.621", fillcolor="#fef9f6"] ;
245 -> 249 ;
250 [label="lat <= 47.376\nsquared_error = 1385309935.373\nsamples = 37\nvalue = 309068.757", fillcolor="#fefaf7"] ;
249 -> 250 ;
251 [label="squared_error = 725812066.712\nsamples = 21\nvalue = 301771.381", fillcolor="#fefaf7"] ;
250 -> 251 ;
252 [label="squared_error = 2089273677.246\nsamples = 16\nvalue = 318646.562", fillcolor="#fef9f6"] ;
250 -> 252 ;
253 [label="squared_error = 828214372.533\nsamples = 29\nvalue = 323690.862", fillcolor="#fef9f6"] ;
249 -> 253 ;
254 [label="squared_error = 16797235734.694\nsamples = 21\nvalue = 377182.857", fillcolor="#fdf7f3"] ;
194 -> 254 ;
255 [label="view <= 0.5\nsquared_error = 8883694202.771\nsamples = 606\nvalue = 343301.15", fillcolor="#fef8f5"] ;
193 -> 255 ;
256 [label="lat <= 47.515\nsquared_error = 6533761426.16\nsamples = 561\nvalue = 333670.052", fillcolor="#fef9f5"] ;
255 -> 256 ;
257 [label="sqft_living15 <= 1845.0\nsquared_error = 5544898583.483\nsamples = 436\nvalue = 319931.195", fillcolor="#fef9f6"] ;
256 -> 257 ;
258 [label="sqft_above <= 1125.0\nsquared_error = 4390880266.491\nsamples = 295\nvalue = 304990.234", fillcolor="#fefaf7"] ;
257 -> 258 ;
259 [label="bathrooms <= 1.625\nsquared_error = 3284181899.108\nsamples = 64\nvalue = 270360.219", fillcolor="#fefbf9"] ;
258 -> 259 ;
260 [label="squared_error = 2496149755.293\nsamples = 23\nvalue = 238328.478", fillcolor="#fefcfb"] ;
259 -> 260 ;
261 [label="lat <= 47.472\nsquared_error = 2827783696.038\nsamples = 41\nvalue = 288329.244", fillcolor="#fefaf8"] ;
259 -> 261 ;
262 [label="squared_error = 2131861814.404\nsamples = 19\nvalue = 306855.263", fillcolor="#fefaf7"] ;
261 -> 262 ;
263 [label="squared_error = 2876403770.705\nsamples = 22\nvalue = 272329.5", fillcolor="#fefbf9"] ;
261 -> 263 ;
264 [label="lat <= 47.5\nsquared_error = 4273187872.852\nsamples = 231\nvalue = 314584.697", fillcolor="#fefaf6"] ;
258 -> 264 ;
265 [label="sqft_living15 <= 1495.0\nsquared_error = 3423679631.162\nsamples = 194\nvalue = 310066.572", fillcolor="#fefaf7"] ;
264 -> 265 ;
266 [label="lat <= 47.455\nsquared_error = 3592730166.005\nsamples = 62\nvalue = 295440.726", fillcolor="#fefaf7"] ;
265 -> 266 ;
267 [label="squared_error = 2636988735.822\nsamples = 23\nvalue = 278540.217", fillcolor="#fefbf8"] ;
266 -> 267 ;
268 [label="lat <= 47.476\nsquared_error = 3888585325.444\nsamples = 39\nvalue = 305407.692", fillcolor="#fefaf7"] ;
266 -> 268 ;
269 [label="squared_error = 4970277343.75\nsamples = 16\nvalue = 327437.5", fillcolor="#fef9f6"] ;
268 -> 269 ;
270 [label="squared_error = 2563637088.847\nsamples = 23\nvalue = 290082.609", fillcolor="#fefaf8"] ;
268 -> 270 ;
271 [label="lat <= 47.487\nsquared_error = 3196608706.675\nsamples = 132\nvalue = 316936.288", fillcolor="#fef9f6"] ;
265 -> 271 ;
272 [label="lat <= 47.45\nsquared_error = 3116043610.908\nsamples = 111\nvalue = 323006.216", fillcolor="#fef9f6"] ;
271 -> 272 ;
273 [label="lat <= 47.443\nsquared_error = 3283900301.543\nsamples = 54\nvalue = 310846.111", fillcolor="#fefaf7"] ;
272 -> 273 ;
274 [label="lat <= 47.431\nsquared_error = 3550133327.673\nsamples = 35\nvalue = 322225.429", fillcolor="#fef9f6"] ;
273 -> 274 ;
275 [label="squared_error = 1424496676.543\nsamples = 18\nvalue = 307441.111", fillcolor="#fefaf7"] ;
274 -> 275 ;
276 [label="squared_error = 5324326782.007\nsamples = 17\nvalue = 337879.412", fillcolor="#fef9f5"] ;
274 -> 276 ;
277 [label="squared_error = 2115537645.429\nsamples = 19\nvalue = 289884.211", fillcolor="#fefaf8"] ;
273 -> 277 ;
278 [label="sqft_living15 <= 1605.0\nsquared_error = 2684223167.128\nsamples = 57\nvalue = 334526.316", fillcolor="#fef9f5"] ;
272 -> 278 ;
279 [label="squared_error = 2472690865.052\nsamples = 17\nvalue = 356582.353", fillcolor="#fef8f4"] ;
278 -> 279 ;
280 [label="sqft_living15 <= 1735.0\nsquared_error = 2479506743.75\nsamples = 40\nvalue = 325152.5", fillcolor="#fef9f6"] ;
278 -> 280 ;
281 [label="squared_error = 1433072580.34\nsamples = 23\nvalue = 308276.087", fillcolor="#fefaf7"] ;
280 -> 281 ;
282 [label="squared_error = 2988598460.208\nsamples = 17\nvalue = 347985.294", fillcolor="#fef8f5"] ;
280 -> 282 ;
283 [label="squared_error = 2398328684.807\nsamples = 21\nvalue = 284852.381", fillcolor="#fefbf8"] ;
271 -> 283 ;
284 [label="sqft_living15 <= 1555.0\nsquared_error = 8059135084.003\nsamples = 37\nvalue = 338274.324", fillcolor="#fef9f5"] ;
264 -> 284 ;
285 [label="squared_error = 7324546972.789\nsamples = 21\nvalue = 323092.857", fillcolor="#fef9f6"] ;
284 -> 285 ;
286 [label="squared_error = 8323748437.5\nsamples = 16\nvalue = 358200.0", fillcolor="#fef8f4"] ;
284 -> 286 ;
287 [label="lat <= 47.433\nsquared_error = 6515134046.879\nsamples = 141\nvalue = 351190.652", fillcolor="#fef8f4"] ;
257 -> 287 ;
288 [label="squared_error = 16131651738.34\nsamples = 16\nvalue = 404218.688", fillcolor="#fdf6f1"] ;
287 -> 288 ;
289 [label="grade <= 7.5\nsquared_error = 4878215945.244\nsamples = 125\nvalue = 344403.064", fillcolor="#fef8f5"] ;
287 -> 289 ;
290 [label="lat <= 47.487\nsquared_error = 4199468799.918\nsamples = 70\nvalue = 327339.714", fillcolor="#fef9f6"] ;
289 -> 290 ;
291 [label="lat <= 47.48\nsquared_error = 3333734583.412\nsamples = 46\nvalue = 341322.391", fillcolor="#fef9f5"] ;
290 -> 291 ;
292 [label="squared_error = 3626318436.385\nsamples = 29\nvalue = 328653.448", fillcolor="#fef9f6"] ;
291 -> 292 ;
293 [label="squared_error = 2093756506.574\nsamples = 17\nvalue = 362934.118", fillcolor="#fef8f4"] ;
291 -> 293 ;
294 [label="squared_error = 4765808120.66\nsamples = 24\nvalue = 300539.583", fillcolor="#fefaf7"] ;
290 -> 294 ;
295 [label="lat <= 47.466\nsquared_error = 4899883665.615\nsamples = 55\nvalue = 366120.055", fillcolor="#fdf8f4"] ;
289 -> 295 ;
296 [label="squared_error = 1397848431.122\nsamples = 28\nvalue = 337732.143", fillcolor="#fef9f5"] ;
295 -> 296 ;
297 [label="squared_error = 6829229894.752\nsamples = 27\nvalue = 395559.37", fillcolor="#fdf7f2"] ;
295 -> 297 ;
298 [label="grade <= 7.5\nsquared_error = 7028098528.326\nsamples = 125\nvalue = 381591.184", fillcolor="#fdf7f3"] ;
256 -> 298 ;
299 [label="sqft_above <= 1585.0\nsquared_error = 7085272517.287\nsamples = 85\nvalue = 360821.647", fillcolor="#fef8f4"] ;
298 -> 299 ;
300 [label="sqft_above <= 1070.0\nsquared_error = 7695052034.512\nsamples = 55\nvalue = 373679.818", fillcolor="#fdf7f3"] ;
299 -> 300 ;
301 [label="squared_error = 5964221335.64\nsamples = 17\nvalue = 333487.647", fillcolor="#fef9f5"] ;
300 -> 301 ;
302 [label="bathrooms <= 1.875\nsquared_error = 7423381468.144\nsamples = 38\nvalue = 391660.526", fillcolor="#fdf7f2"] ;
300 -> 302 ;
303 [label="squared_error = 8324754795.918\nsamples = 21\nvalue = 374714.286", fillcolor="#fdf7f3"] ;
302 -> 303 ;
304 [label="squared_error = 5516959377.163\nsamples = 17\nvalue = 412594.118", fillcolor="#fdf6f1"] ;
302 -> 304 ;
305 [label="squared_error = 5108532580.556\nsamples = 30\nvalue = 337248.333", fillcolor="#fef9f5"] ;
299 -> 305 ;
306 [label="lat <= 47.526\nsquared_error = 4042013059.297\nsamples = 40\nvalue = 425726.45", fillcolor="#fdf6f0"] ;
298 -> 306 ;
307 [label="squared_error = 1993261833.91\nsamples = 17\nvalue = 394408.824", fillcolor="#fdf7f2"] ;
306 -> 307 ;
308 [label="squared_error = 4295551800.801\nsamples = 23\nvalue = 448874.261", fillcolor="#fdf5ef"] ;
306 -> 308 ;
309 [label="grade <= 7.5\nsquared_error = 22606887821.42\nsamples = 45\nvalue = 463368.844", fillcolor="#fdf4ee"] ;
255 -> 309 ;
310 [label="squared_error = 18726636475.059\nsamples = 26\nvalue = 401865.308", fillcolor="#fdf6f2"] ;
309 -> 310 ;
311 [label="squared_error = 15657033739.612\nsamples = 19\nvalue = 547531.579", fillcolor="#fcf1ea"] ;
309 -> 311 ;
312 [label="lat <= 47.428\nsquared_error = 14552890534.657\nsamples = 1910\nvalue = 389409.5", fillcolor="#fdf7f2"] ;
2 -> 312 ;
313 [label="sqft_living <= 2576.0\nsquared_error = 7177376286.409\nsamples = 1021\nvalue = 346018.63", fillcolor="#fef8f5"] ;
312 -> 313 ;
314 [label="view <= 0.5\nsquared_error = 5026424339.07\nsamples = 776\nvalue = 328259.274", fillcolor="#fef9f6"] ;
313 -> 314 ;
315 [label="sqft_living15 <= 1937.0\nsquared_error = 3805790158.707\nsamples = 729\nvalue = 321767.045", fillcolor="#fef9f6"] ;
314 -> 315 ;
316 [label="sqft_above <= 1495.0\nsquared_error = 3875656437.337\nsamples = 226\nvalue = 296211.265", fillcolor="#fefaf7"] ;
315 -> 316 ;
317 [label="lat <= 47.352\nsquared_error = 2274611849.285\nsamples = 80\nvalue = 276084.8", fillcolor="#fefbf8"] ;
316 -> 317 ;
318 [label="sqft_living <= 2150.0\nsquared_error = 1288124496.41\nsamples = 43\nvalue = 260760.093", fillcolor="#fefbf9"] ;
317 -> 318 ;
319 [label="squared_error = 1293968247.84\nsamples = 25\nvalue = 251345.4", fillcolor="#fefcfa"] ;
318 -> 319 ;
320 [label="squared_error = 985921205.608\nsamples = 18\nvalue = 273836.056", fillcolor="#fefbf9"] ;
318 -> 320 ;
321 [label="bathrooms <= 1.875\nsquared_error = 2830951457.268\nsamples = 37\nvalue = 293894.595", fillcolor="#fefaf8"] ;
317 -> 321 ;
322 [label="squared_error = 1122495615.234\nsamples = 16\nvalue = 279278.125", fillcolor="#fefbf8"] ;
321 -> 322 ;
323 [label="squared_error = 3845839399.093\nsamples = 21\nvalue = 305030.952", fillcolor="#fefaf7"] ;
321 -> 323 ;
324 [label="grade <= 7.5\nsquared_error = 4409361249.947\nsamples = 146\nvalue = 307239.466", fillcolor="#fefaf7"] ;
316 -> 324 ;
325 [label="sqft_living15 <= 1525.0\nsquared_error = 3751080801.244\nsamples = 99\nvalue = 296814.737", fillcolor="#fefaf7"] ;
324 -> 325 ;
326 [label="squared_error = 2475414110.231\nsamples = 23\nvalue = 263329.826", fillcolor="#fefbf9"] ;
325 -> 326 ;
327 [label="lat <= 47.373\nsquared_error = 3695125733.115\nsamples = 76\nvalue = 306948.329", fillcolor="#fefaf7"] ;
325 -> 327 ;
328 [label="sqft_above <= 2085.0\nsquared_error = 2575713589.039\nsamples = 54\nvalue = 293644.87", fillcolor="#fefaf8"] ;
327 -> 328 ;
329 [label="sqft_living <= 2022.5\nsquared_error = 1161900193.886\nsamples = 34\nvalue = 278485.235", fillcolor="#fefbf8"] ;
328 -> 329 ;
330 [label="squared_error = 1182470398.667\nsamples = 18\nvalue = 288286.0", fillcolor="#fefaf8"] ;
329 -> 330 ;
331 [label="squared_error = 909127255.859\nsamples = 16\nvalue = 267459.375", fillcolor="#fefbf9"] ;
329 -> 331 ;
332 [label="squared_error = 3924347642.188\nsamples = 20\nvalue = 319416.25", fillcolor="#fef9f6"] ;
328 -> 332 ;
333 [label="squared_error = 4942083290.289\nsamples = 22\nvalue = 339602.273", fillcolor="#fef9f5"] ;
327 -> 333 ;
334 [label="sqft_living15 <= 1740.0\nsquared_error = 5084866469.549\nsamples = 47\nvalue = 329197.936", fillcolor="#fef9f6"] ;
324 -> 334 ;
335 [label="squared_error = 7938890280.247\nsamples = 18\nvalue = 362734.444", fillcolor="#fef8f4"] ;
334 -> 335 ;
336 [label="squared_error = 2182019360.419\nsamples = 29\nvalue = 308382.172", fillcolor="#fefaf7"] ;
334 -> 336 ;
337 [label="lat <= 47.34\nsquared_error = 3349115704.53\nsamples = 503\nvalue = 333249.364", fillcolor="#fef9f5"] ;
315 -> 337 ;
338 [label="sqft_above <= 2210.0\nsquared_error = 2313539453.532\nsamples = 195\nvalue = 310427.964", fillcolor="#fefaf7"] ;
337 -> 338 ;
339 [label="sqft_living15 <= 2407.5\nsquared_error = 2071101549.798\nsamples = 125\nvalue = 299315.864", fillcolor="#fefaf7"] ;
338 -> 339 ;
340 [label="lat <= 47.303\nsquared_error = 1950525641.694\nsamples = 109\nvalue = 295286.11", fillcolor="#fefaf7"] ;
339 -> 340 ;
341 [label="sqft_living15 <= 2110.0\nsquared_error = 1553000183.101\nsamples = 36\nvalue = 309622.806", fillcolor="#fefaf7"] ;
340 -> 341 ;
342 [label="squared_error = 2042106111.806\nsamples = 18\nvalue = 322689.167", fillcolor="#fef9f6"] ;
341 -> 342 ;
343 [label="squared_error = 722434669.025\nsamples = 18\nvalue = 296556.444", fillcolor="#fefaf7"] ;
341 -> 343 ;
344 [label="lat <= 47.321\nsquared_error = 1995215951.601\nsamples = 73\nvalue = 288215.959", fillcolor="#fefaf8"] ;
340 -> 344 ;
345 [label="sqft_living15 <= 2140.0\nsquared_error = 1769954472.3\nsamples = 40\nvalue = 279663.5", fillcolor="#fefbf8"] ;
344 -> 345 ;
346 [label="squared_error = 1576716618.165\nsamples = 24\nvalue = 272154.208", fillcolor="#fefbf9"] ;
345 -> 346 ;
347 [label="squared_error = 1848350773.496\nsamples = 16\nvalue = 290927.438", fillcolor="#fefaf8"] ;
345 -> 347 ;
348 [label="sqft_living15 <= 2075.0\nsquared_error = 2072133359.335\nsamples = 33\nvalue = 298582.576", fillcolor="#fefaf7"] ;
344 -> 348 ;
349 [label="squared_error = 2007450549.277\nsamples = 16\nvalue = 312206.188", fillcolor="#fefaf6"] ;
348 -> 349 ;
350 [label="squared_error = 1793916914.934\nsamples = 17\nvalue = 285760.353", fillcolor="#fefbf8"] ;
348 -> 350 ;
351 [label="squared_error = 2028246649.746\nsamples = 16\nvalue = 326768.562", fillcolor="#fef9f6"] ;
339 -> 351 ;
352 [label="sqft_above <= 2395.0\nsquared_error = 2132220406.771\nsamples = 70\nvalue = 330271.0", fillcolor="#fef9f6"] ;
338 -> 352 ;
353 [label="sqft_above <= 2301.5\nsquared_error = 3249274159.447\nsamples = 38\nvalue = 339346.974", fillcolor="#fef9f5"] ;
352 -> 353 ;
354 [label="squared_error = 1610090871.696\nsamples = 22\nvalue = 328531.409", fillcolor="#fef9f6"] ;
353 -> 354 ;
355 [label="squared_error = 5121150001.484\nsamples = 16\nvalue = 354218.375", fillcolor="#fef8f4"] ;
353 -> 355 ;
356 [label="sqft_above <= 2485.5\nsquared_error = 591741562.265\nsamples = 32\nvalue = 319493.281", fillcolor="#fef9f6"] ;
352 -> 356 ;
357 [label="squared_error = 286962044.121\nsamples = 16\nvalue = 311555.562", fillcolor="#fefaf7"] ;
356 -> 357 ;
358 [label="squared_error = 770506322.5\nsamples = 16\nvalue = 327431.0", fillcolor="#fef9f6"] ;
356 -> 358 ;
359 [label="bathrooms <= 2.125\nsquared_error = 3466256499.009\nsamples = 308\nvalue = 347697.977", fillcolor="#fef8f5"] ;
337 -> 359 ;
360 [label="sqft_basement <= 435.0\nsquared_error = 11042649230.104\nsamples = 34\nvalue = 393394.118", fillcolor="#fdf7f2"] ;
359 -> 360 ;
361 [label="squared_error = 11983071427.469\nsamples = 18\nvalue = 416719.444", fillcolor="#fdf6f1"] ;
360 -> 361 ;
362 [label="squared_error = 8684004833.984\nsamples = 16\nvalue = 367153.125", fillcolor="#fdf8f3"] ;
360 -> 362 ;
363 [label="sqft_living <= 2242.5\nsquared_error = 2234855679.657\nsamples = 274\nvalue = 342027.653", fillcolor="#fef9f5"] ;
359 -> 363 ;
364 [label="lat <= 47.398\nsquared_error = 2404536354.056\nsamples = 141\nvalue = 329541.305", fillcolor="#fef9f6"] ;
363 -> 364 ;
365 [label="grade <= 7.5\nsquared_error = 1594515282.699\nsamples = 118\nvalue = 324932.407", fillcolor="#fef9f6"] ;
364 -> 365 ;
366 [label="sqft_living15 <= 2025.0\nsquared_error = 1282961435.314\nsamples = 46\nvalue = 311819.891", fillcolor="#fefaf7"] ;
365 -> 366 ;
367 [label="squared_error = 1317120813.149\nsamples = 17\nvalue = 325035.294", fillcolor="#fef9f6"] ;
366 -> 367 ;
368 [label="squared_error = 1100542378.478\nsamples = 29\nvalue = 304072.931", fillcolor="#fefaf7"] ;
366 -> 368 ;
369 [label="sqft_above <= 2105.0\nsquared_error = 1613532748.268\nsamples = 72\nvalue = 333309.847", fillcolor="#fef9f5"] ;
365 -> 369 ;
370 [label="sqft_living15 <= 2097.5\nsquared_error = 1363986581.097\nsamples = 35\nvalue = 321576.4", fillcolor="#fef9f6"] ;
369 -> 370 ;
371 [label="squared_error = 757172535.09\nsamples = 16\nvalue = 335325.312", fillcolor="#fef9f5"] ;
370 -> 371 ;
372 [label="squared_error = 1581751724.654\nsamples = 19\nvalue = 309998.368", fillcolor="#fefaf7"] ;
370 -> 372 ;
373 [label="sqft_living <= 2180.5\nsquared_error = 1596165583.565\nsamples = 37\nvalue = 344409.054", fillcolor="#fef8f5"] ;
369 -> 373 ;
374 [label="squared_error = 1705691083.984\nsamples = 16\nvalue = 351203.125", fillcolor="#fef8f4"] ;
373 -> 374 ;
375 [label="squared_error = 1450753037.188\nsamples = 21\nvalue = 339232.619", fillcolor="#fef9f5"] ;
373 -> 375 ;
376 [label="squared_error = 5892199395.085\nsamples = 23\nvalue = 353186.957", fillcolor="#fef8f4"] ;
364 -> 376 ;
377 [label="grade <= 7.5\nsquared_error = 1714452835.395\nsamples = 133\nvalue = 355265.06", fillcolor="#fef8f4"] ;
363 -> 377 ;
378 [label="sqft_living15 <= 2230.0\nsquared_error = 1137030006.25\nsamples = 32\nvalue = 342052.5", fillcolor="#fef9f5"] ;
377 -> 378 ;
379 [label="squared_error = 1324488281.25\nsamples = 16\nvalue = 337412.5", fillcolor="#fef9f5"] ;
378 -> 379 ;
380 [label="squared_error = 906512531.25\nsamples = 16\nvalue = 346692.5", fillcolor="#fef8f5"] ;
378 -> 380 ;
381 [label="sqft_above <= 2395.0\nsquared_error = 1824564906.17\nsamples = 101\nvalue = 359451.218", fillcolor="#fef8f4"] ;
377 -> 381 ;
382 [label="bedrooms <= 3.5\nsquared_error = 1721792160.279\nsamples = 57\nvalue = 351397.965", fillcolor="#fef8f4"] ;
381 -> 382 ;
383 [label="squared_error = 1642870925.737\nsamples = 17\nvalue = 368574.294", fillcolor="#fdf8f3"] ;
382 -> 383 ;
384 [label="sqft_above <= 2305.0\nsquared_error = 1576658391.124\nsamples = 40\nvalue = 344098.025", fillcolor="#fef8f5"] ;
382 -> 384 ;
385 [label="squared_error = 1689620064.721\nsamples = 22\nvalue = 351674.773", fillcolor="#fef8f4"] ;
384 -> 385 ;
386 [label="squared_error = 1282673588.247\nsamples = 18\nvalue = 334837.556", fillcolor="#fef9f5"] ;
384 -> 386 ;
387 [label="sqft_above <= 2455.0\nsquared_error = 1764846150.27\nsamples = 44\nvalue = 369883.841", fillcolor="#fdf8f3"] ;
381 -> 387 ;
388 [label="squared_error = 2248457668.498\nsamples = 17\nvalue = 386358.176", fillcolor="#fdf7f2"] ;
387 -> 388 ;
389 [label="squared_error = 1181872654.321\nsamples = 27\nvalue = 359511.111", fillcolor="#fef8f4"] ;
387 -> 389 ;
390 [label="lat <= 47.358\nsquared_error = 13165269192.265\nsamples = 47\nvalue = 428957.894", fillcolor="#fdf6f0"] ;
314 -> 390 ;
391 [label="squared_error = 8397057198.392\nsamples = 28\nvalue = 388238.964", fillcolor="#fdf7f2"] ;
390 -> 391 ;
392 [label="squared_error = 14147872277.562\nsamples = 19\nvalue = 488964.737", fillcolor="#fdf3ed"] ;
390 -> 392 ;
393 [label="grade <= 7.5\nsquared_error = 9827155957.225\nsamples = 245\nvalue = 402268.669", fillcolor="#fdf6f2"] ;
313 -> 393 ;
394 [label="lat <= 47.338\nsquared_error = 4707587474.508\nsamples = 69\nvalue = 355673.884", fillcolor="#fef8f4"] ;
393 -> 394 ;
395 [label="squared_error = 1933710083.255\nsamples = 23\nvalue = 324717.304", fillcolor="#fef9f6"] ;
394 -> 395 ;
396 [label="sqft_basement <= 915.0\nsquared_error = 5375793799.622\nsamples = 46\nvalue = 371152.174", fillcolor="#fdf8f3"] ;
394 -> 396 ;
397 [label="squared_error = 4642767655.556\nsamples = 30\nvalue = 385036.667", fillcolor="#fdf7f2"] ;
396 -> 397 ;
398 [label="squared_error = 5711017773.438\nsamples = 16\nvalue = 345118.75", fillcolor="#fef8f5"] ;
396 -> 398 ;
399 [label="bedrooms <= 3.5\nsquared_error = 10649406517.247\nsamples = 176\nvalue = 420535.943", fillcolor="#fdf6f1"] ;
393 -> 399 ;
400 [label="sqft_above <= 2582.5\nsquared_error = 16956551274.238\nsamples = 38\nvalue = 491713.158", fillcolor="#fdf3ed"] ;
399 -> 400 ;
401 [label="squared_error = 17631050914.128\nsamples = 19\nvalue = 538047.368", fillcolor="#fcf2ea"] ;
400 -> 401 ;
402 [label="squared_error = 11988333504.155\nsamples = 19\nvalue = 445378.947", fillcolor="#fdf5ef"] ;
400 -> 402 ;
403 [label="sqft_living <= 3366.0\nsquared_error = 7133475764.954\nsamples = 138\nvalue = 400936.42", fillcolor="#fdf6f2"] ;
399 -> 403 ;
404 [label="lat <= 47.329\nsquared_error = 6285392563.261\nsamples = 121\nvalue = 390607.248", fillcolor="#fdf7f2"] ;
403 -> 404 ;
405 [label="lat <= 47.301\nsquared_error = 4914083569.196\nsamples = 47\nvalue = 365233.319", fillcolor="#fef8f4"] ;
404 -> 405 ;
406 [label="squared_error = 5749429671.581\nsamples = 29\nvalue = 386947.931", fillcolor="#fdf7f2"] ;
405 -> 406 ;
407 [label="squared_error = 1584644122.111\nsamples = 18\nvalue = 330248.667", fillcolor="#fef9f6"] ;
405 -> 407 ;
408 [label="bathrooms <= 2.625\nsquared_error = 6487714670.539\nsamples = 74\nvalue = 406723.122", fillcolor="#fdf6f1"] ;
404 -> 408 ;
409 [label="lat <= 47.378\nsquared_error = 4147827613.816\nsamples = 49\nvalue = 390418.02", fillcolor="#fdf7f2"] ;
408 -> 409 ;
410 [label="sqft_above <= 2670.0\nsquared_error = 3235183798.575\nsamples = 33\nvalue = 382629.03", fillcolor="#fdf7f3"] ;
409 -> 410 ;
411 [label="squared_error = 4892725519.031\nsamples = 17\nvalue = 393614.706", fillcolor="#fdf7f2"] ;
410 -> 411 ;
412 [label="squared_error = 1209575708.438\nsamples = 16\nvalue = 370956.75", fillcolor="#fdf8f3"] ;
410 -> 412 ;
413 [label="squared_error = 5646949431.152\nsamples = 16\nvalue = 406482.812", fillcolor="#fdf6f1"] ;
409 -> 413 ;
414 [label="squared_error = 9531501243.226\nsamples = 25\nvalue = 438681.12", fillcolor="#fdf5f0"] ;
408 -> 414 ;
415 [label="squared_error = 7005335430.851\nsamples = 17\nvalue = 474455.824", fillcolor="#fdf4ee"] ;
403 -> 415 ;
416 [label="view <= 0.5\nsquared_error = 18377819495.026\nsamples = 889\nvalue = 439243.109", fillcolor="#fdf5f0"] ;
312 -> 416 ;
417 [label="sqft_living15 <= 2355.0\nsquared_error = 10869417728.294\nsamples = 782\nvalue = 418539.944", fillcolor="#fdf6f1"] ;
416 -> 417 ;
418 [label="grade <= 7.5\nsquared_error = 8887883767.992\nsamples = 565\nvalue = 389846.149", fillcolor="#fdf7f2"] ;
417 -> 418 ;
419 [label="lat <= 47.519\nsquared_error = 6864236599.31\nsamples = 346\nvalue = 364751.561", fillcolor="#fef8f4"] ;
418 -> 419 ;
420 [label="sqft_living <= 2185.0\nsquared_error = 5890529688.613\nsamples = 279\nvalue = 351134.552", fillcolor="#fef8f4"] ;
419 -> 420 ;
421 [label="bathrooms <= 1.625\nsquared_error = 4669402359.911\nsamples = 137\nvalue = 327306.555", fillcolor="#fef9f6"] ;
420 -> 421 ;
422 [label="squared_error = 4064350050.0\nsamples = 24\nvalue = 280960.0", fillcolor="#fefbf8"] ;
421 -> 422 ;
423 [label="sqft_above <= 1805.0\nsquared_error = 4244801181.358\nsamples = 113\nvalue = 337150.071", fillcolor="#fef9f5"] ;
421 -> 423 ;
424 [label="lat <= 47.468\nsquared_error = 2787579846.763\nsamples = 66\nvalue = 322470.455", fillcolor="#fef9f6"] ;
423 -> 424 ;
425 [label="squared_error = 4057193475.0\nsamples = 20\nvalue = 342705.0", fillcolor="#fef9f5"] ;
424 -> 425 ;
426 [label="bathrooms <= 2.125\nsquared_error = 1980159642.013\nsamples = 46\nvalue = 313672.826", fillcolor="#fefaf6"] ;
424 -> 426 ;
427 [label="squared_error = 2033935582.64\nsamples = 29\nvalue = 301160.345", fillcolor="#fefaf7"] ;
426 -> 427 ;
428 [label="squared_error = 1165746159.17\nsamples = 17\nvalue = 335017.647", fillcolor="#fef9f5"] ;
426 -> 428 ;
429 [label="bedrooms <= 3.5\nsquared_error = 5563573344.298\nsamples = 47\nvalue = 357764.0", fillcolor="#fef8f4"] ;
423 -> 429 ;
430 [label="squared_error = 4602259955.442\nsamples = 21\nvalue = 382715.714", fillcolor="#fdf7f3"] ;
429 -> 430 ;
431 [label="squared_error = 5431003387.367\nsamples = 26\nvalue = 337610.692", fillcolor="#fef9f5"] ;
429 -> 431 ;
432 [label="sqft_living15 <= 1935.0\nsquared_error = 5992384796.868\nsamples = 142\nvalue = 374123.535", fillcolor="#fdf7f3"] ;
420 -> 432 ;
433 [label="lat <= 47.501\nsquared_error = 4455745289.677\nsamples = 93\nvalue = 353282.978", fillcolor="#fef8f4"] ;
432 -> 433 ;
434 [label="lat <= 47.484\nsquared_error = 3961070194.875\nsamples = 62\nvalue = 342943.21", fillcolor="#fef9f5"] ;
433 -> 434 ;
435 [label="lat <= 47.465\nsquared_error = 4922114782.867\nsamples = 41\nvalue = 354709.756", fillcolor="#fef8f4"] ;
434 -> 435 ;
436 [label="squared_error = 4733234296.0\nsamples = 25\nvalue = 337648.0", fillcolor="#fef9f5"] ;
435 -> 436 ;
437 [label="squared_error = 4051689335.938\nsamples = 16\nvalue = 381368.75", fillcolor="#fdf7f3"] ;
435 -> 437 ;
438 [label="squared_error = 1286686079.864\nsamples = 21\nvalue = 319970.429", fillcolor="#fef9f6"] ;
434 -> 438 ;
439 [label="squared_error = 4803630564.121\nsamples = 31\nvalue = 373962.516", fillcolor="#fdf7f3"] ;
433 -> 439 ;
440 [label="sqft_above <= 2300.0\nsquared_error = 6519964990.629\nsamples = 49\nvalue = 413678.061", fillcolor="#fdf6f1"] ;
432 -> 440 ;
441 [label="lat <= 47.483\nsquared_error = 6625882876.492\nsamples = 33\nvalue = 397609.848", fillcolor="#fdf7f2"] ;
440 -> 441 ;
442 [label="squared_error = 7485557812.5\nsamples = 16\nvalue = 425825.0", fillcolor="#fdf6f0"] ;
441 -> 442 ;
443 [label="squared_error = 4362320164.36\nsamples = 17\nvalue = 371054.412", fillcolor="#fdf8f3"] ;
441 -> 443 ;
444 [label="squared_error = 4670692460.938\nsamples = 16\nvalue = 446818.75", fillcolor="#fdf5ef"] ;
440 -> 444 ;
445 [label="lat <= 47.527\nsquared_error = 6931486875.696\nsamples = 67\nvalue = 421455.224", fillcolor="#fdf6f0"] ;
419 -> 445 ;
446 [label="sqft_living15 <= 1775.0\nsquared_error = 9812398437.5\nsamples = 32\nvalue = 445137.5", fillcolor="#fdf5ef"] ;
445 -> 446 ;
447 [label="squared_error = 7850719677.734\nsamples = 16\nvalue = 402621.875", fillcolor="#fdf6f2"] ;
446 -> 447 ;
448 [label="squared_error = 8158920458.984\nsamples = 16\nvalue = 487653.125", fillcolor="#fdf3ed"] ;
446 -> 448 ;
449 [label="lat <= 47.53\nsquared_error = 3315908277.551\nsamples = 35\nvalue = 399802.857", fillcolor="#fdf7f2"] ;
445 -> 449 ;
450 [label="squared_error = 2840956835.938\nsamples = 16\nvalue = 376493.75", fillcolor="#fdf7f3"] ;
449 -> 450 ;
451 [label="squared_error = 2873052686.981\nsamples = 19\nvalue = 419431.579", fillcolor="#fdf6f1"] ;
449 -> 451 ;
452 [label="lat <= 47.517\nsquared_error = 9518235331.409\nsamples = 219\nvalue = 429493.306", fillcolor="#fdf5f0"] ;
418 -> 452 ;
453 [label="sqft_living <= 3040.0\nsquared_error = 6697717029.78\nsamples = 190\nvalue = 413449.784", fillcolor="#fdf6f1"] ;
452 -> 453 ;
454 [label="lat <= 47.462\nsquared_error = 5429006792.99\nsamples = 174\nvalue = 404598.328", fillcolor="#fdf6f1"] ;
453 -> 454 ;
455 [label="sqft_living <= 2115.0\nsquared_error = 2834184654.221\nsamples = 79\nvalue = 373445.671", fillcolor="#fdf7f3"] ;
454 -> 455 ;
456 [label="squared_error = 1135569132.231\nsamples = 22\nvalue = 342863.636", fillcolor="#fef9f5"] ;
455 -> 456 ;
457 [label="lat <= 47.439\nsquared_error = 2989487988.299\nsamples = 57\nvalue = 385249.263", fillcolor="#fdf7f2"] ;
455 -> 457 ;
458 [label="squared_error = 5186030273.438\nsamples = 16\nvalue = 411218.75", fillcolor="#fdf6f1"] ;
457 -> 458 ;
459 [label="lat <= 47.449\nsquared_error = 1766407957.264\nsamples = 41\nvalue = 375114.829", fillcolor="#fdf7f3"] ;
457 -> 459 ;
460 [label="squared_error = 775901818.75\nsamples = 20\nvalue = 361957.5", fillcolor="#fef8f4"] ;
459 -> 460 ;
461 [label="squared_error = 2387854717.188\nsamples = 21\nvalue = 387645.619", fillcolor="#fdf7f2"] ;
459 -> 461 ;
462 [label="sqft_living <= 2205.0\nsquared_error = 6108653533.793\nsamples = 95\nvalue = 430504.221", fillcolor="#fdf5f0"] ;
454 -> 462 ;
463 [label="sqft_living15 <= 2075.0\nsquared_error = 6077251200.799\nsamples = 36\nvalue = 403731.917", fillcolor="#fdf6f1"] ;
462 -> 463 ;
464 [label="squared_error = 1429340792.028\nsamples = 18\nvalue = 381572.167", fillcolor="#fdf7f3"] ;
463 -> 464 ;
465 [label="squared_error = 9743052569.444\nsamples = 18\nvalue = 425891.667", fillcolor="#fdf6f0"] ;
463 -> 465 ;
466 [label="bedrooms <= 3.5\nsquared_error = 5423618219.338\nsamples = 59\nvalue = 446839.864", fillcolor="#fdf5ef"] ;
462 -> 466 ;
467 [label="squared_error = 6325830654.15\nsamples = 21\nvalue = 475106.571", fillcolor="#fdf4ee"] ;
466 -> 467 ;
468 [label="sqft_above <= 2340.0\nsquared_error = 4239452806.377\nsamples = 38\nvalue = 431218.789", fillcolor="#fdf5f0"] ;
466 -> 468 ;
469 [label="squared_error = 3045482775.0\nsamples = 20\nvalue = 416015.0", fillcolor="#fdf6f1"] ;
468 -> 469 ;
470 [label="squared_error = 5023870239.654\nsamples = 18\nvalue = 448111.889", fillcolor="#fdf5ef"] ;
468 -> 470 ;
471 [label="squared_error = 10376994443.359\nsamples = 16\nvalue = 509709.375", fillcolor="#fcf3ec"] ;
453 -> 471 ;
472 [label="squared_error = 15262429123.068\nsamples = 29\nvalue = 534606.034", fillcolor="#fcf2ea"] ;
452 -> 472 ;
473 [label="sqft_living <= 2495.0\nsquared_error = 8303475898.969\nsamples = 217\nvalue = 493249.594", fillcolor="#fdf3ed"] ;
417 -> 473 ;
474 [label="lat <= 47.47\nsquared_error = 6338890606.52\nsamples = 86\nvalue = 452292.407", fillcolor="#fdf5ef"] ;
473 -> 474 ;
475 [label="squared_error = 3441443888.889\nsamples = 21\nvalue = 401833.333", fillcolor="#fdf6f2"] ;
474 -> 475 ;
476 [label="grade <= 7.5\nsquared_error = 6186636276.953\nsamples = 65\nvalue = 468594.569", fillcolor="#fdf4ee"] ;
474 -> 476 ;
477 [label="squared_error = 6017916536.0\nsamples = 25\nvalue = 430992.0", fillcolor="#fdf5f0"] ;
476 -> 477 ;
478 [label="sqft_above <= 2235.0\nsquared_error = 4856039883.344\nsamples = 40\nvalue = 492096.175", fillcolor="#fdf3ed"] ;
476 -> 478 ;
479 [label="squared_error = 5856058139.864\nsamples = 21\nvalue = 508300.571", fillcolor="#fcf3ec"] ;
478 -> 479 ;
480 [label="squared_error = 3139761340.997\nsamples = 19\nvalue = 474186.053", fillcolor="#fdf4ee"] ;
478 -> 480 ;
481 [label="sqft_living <= 2890.0\nsquared_error = 7768989388.448\nsamples = 131\nvalue = 520137.519", fillcolor="#fcf2eb"] ;
473 -> 481 ;
482 [label="lat <= 47.512\nsquared_error = 9724165886.007\nsamples = 74\nvalue = 498884.486", fillcolor="#fdf3ec"] ;
481 -> 482 ;
483 [label="sqft_living15 <= 2715.0\nsquared_error = 7353085159.511\nsamples = 57\nvalue = 480279.877", fillcolor="#fdf4ed"] ;
482 -> 483 ;
484 [label="lat <= 47.48\nsquared_error = 6899342986.745\nsamples = 37\nvalue = 463462.108", fillcolor="#fdf4ee"] ;
483 -> 484 ;
485 [label="squared_error = 9553941529.0\nsamples = 20\nvalue = 480359.0", fillcolor="#fdf4ed"] ;
484 -> 485 ;
486 [label="squared_error = 3045235126.83\nsamples = 17\nvalue = 443583.412", fillcolor="#fdf5ef"] ;
484 -> 486 ;
487 [label="squared_error = 6701248214.388\nsamples = 20\nvalue = 511392.75", fillcolor="#fcf3ec"] ;
483 -> 487 ;
488 [label="squared_error = 12622417138.464\nsamples = 17\nvalue = 561264.647", fillcolor="#fcf1e9"] ;
482 -> 488 ;
489 [label="sqft_living <= 3230.0\nsquared_error = 3882984203.513\nsamples = 57\nvalue = 547729.175", fillcolor="#fcf1ea"] ;
481 -> 489 ;
490 [label="sqft_living15 <= 2765.0\nsquared_error = 2783939179.482\nsamples = 35\nvalue = 537617.657", fillcolor="#fcf2ea"] ;
489 -> 490 ;
491 [label="squared_error = 3309909412.111\nsamples = 17\nvalue = 526622.647", fillcolor="#fcf2eb"] ;
490 -> 491 ;
492 [label="squared_error = 2065184278.25\nsamples = 18\nvalue = 548001.833", fillcolor="#fcf1ea"] ;
490 -> 492 ;
493 [label="squared_error = 5210030232.49\nsamples = 22\nvalue = 563815.682", fillcolor="#fcf1e9"] ;
489 -> 493 ;
494 [label="sqft_above <= 2280.0\nsquared_error = 47225885535.238\nsamples = 107\nvalue = 590550.355", fillcolor="#fcf0e7"] ;
416 -> 494 ;
495 [label="sqft_above <= 1335.0\nsquared_error = 20671097528.412\nsamples = 82\nvalue = 534480.951", fillcolor="#fcf2ea"] ;
494 -> 495 ;
496 [label="squared_error = 14381040941.828\nsamples = 19\nvalue = 460189.474", fillcolor="#fdf4ee"] ;
495 -> 496 ;
497 [label="bathrooms <= 2.375\nsquared_error = 20401570522.058\nsamples = 63\nvalue = 556886.317", fillcolor="#fcf1e9"] ;
495 -> 497 ;
498 [label="lat <= 47.494\nsquared_error = 19036254491.0\nsamples = 32\nvalue = 599139.0", fillcolor="#fcf0e7"] ;
497 -> 498 ;
499 [label="squared_error = 2888768983.75\nsamples = 16\nvalue = 542915.5", fillcolor="#fcf2ea"] ;
498 -> 499 ;
500 [label="squared_error = 28861576093.75\nsamples = 16\nvalue = 655362.5", fillcolor="#fbeee4"] ;
498 -> 500 ;
501 [label="squared_error = 18065722980.229\nsamples = 31\nvalue = 513270.645", fillcolor="#fcf3eb"] ;
497 -> 501 ;
502 [label="squared_error = 90191976336.0\nsamples = 25\nvalue = 774458.0", fillcolor="#fbe9dd"] ;
494 -> 502 ;
503 [label="sqft_living <= 2035.0\nsquared_error = 38538053823.028\nsamples = 6988\nvalue = 526835.894", fillcolor="#fcf2eb"] ;
1 -> 503 ;
504 [label="lat <= 47.696\nsquared_error = 20091303057.396\nsamples = 4662\nvalue = 462742.41", fillcolor="#fdf4ee"] ;
503 -> 504 ;
505 [label="lat <= 47.573\nsquared_error = 21726136020.363\nsamples = 3105\nvalue = 498478.629", fillcolor="#fdf3ec"] ;
504 -> 505 ;
506 [label="sqft_living15 <= 1805.0\nsquared_error = 13496627591.083\nsamples = 855\nvalue = 405693.113", fillcolor="#fdf6f1"] ;
505 -> 506 ;
507 [label="sqft_living <= 1175.0\nsquared_error = 10105097968.804\nsamples = 690\nvalue = 382998.132", fillcolor="#fdf7f3"] ;
506 -> 507 ;
508 [label="sqft_above <= 865.0\nsquared_error = 6659561159.66\nsamples = 232\nvalue = 330473.672", fillcolor="#fef9f5"] ;
507 -> 508 ;
509 [label="bedrooms <= 1.5\nsquared_error = 5565091368.358\nsamples = 114\nvalue = 310483.623", fillcolor="#fefaf7"] ;
508 -> 509 ;
510 [label="squared_error = 7297470368.75\nsamples = 20\nvalue = 279452.5", fillcolor="#fefbf8"] ;
509 -> 510 ;
511 [label="bathrooms <= 1.25\nsquared_error = 4948030000.181\nsamples = 94\nvalue = 317085.989", fillcolor="#fef9f6"] ;
509 -> 511 ;
512 [label="sqft_living15 <= 1030.0\nsquared_error = 5079348707.117\nsamples = 68\nvalue = 326857.029", fillcolor="#fef9f6"] ;
511 -> 512 ;
513 [label="squared_error = 4406871093.75\nsamples = 16\nvalue = 280312.5", fillcolor="#fefbf8"] ;
512 -> 513 ;
514 [label="lat <= 47.561\nsquared_error = 4414580050.667\nsamples = 52\nvalue = 341178.423", fillcolor="#fef9f5"] ;
512 -> 514 ;
515 [label="sqft_living15 <= 1360.0\nsquared_error = 3298143275.311\nsamples = 35\nvalue = 332993.657", fillcolor="#fef9f5"] ;
514 -> 515 ;
516 [label="squared_error = 3837219633.795\nsamples = 19\nvalue = 343116.316", fillcolor="#fef9f5"] ;
515 -> 516 ;
517 [label="squared_error = 2391812892.5\nsamples = 16\nvalue = 320973.0", fillcolor="#fef9f6"] ;
515 -> 517 ;
518 [label="squared_error = 6291249134.948\nsamples = 17\nvalue = 358029.412", fillcolor="#fef8f4"] ;
514 -> 518 ;
519 [label="squared_error = 3701822426.96\nsamples = 26\nvalue = 291530.962", fillcolor="#fefaf8"] ;
511 -> 519 ;
520 [label="sqft_living15 <= 1185.0\nsquared_error = 6957904432.712\nsamples = 118\nvalue = 349786.093", fillcolor="#fef8f4"] ;
508 -> 520 ;
521 [label="sqft_living <= 1065.0\nsquared_error = 7470882214.533\nsamples = 34\nvalue = 316488.235", fillcolor="#fef9f6"] ;
520 -> 521 ;
522 [label="squared_error = 5738750585.938\nsamples = 16\nvalue = 289106.25", fillcolor="#fefaf8"] ;
521 -> 522 ;
523 [label="squared_error = 7751676450.617\nsamples = 18\nvalue = 340827.778", fillcolor="#fef9f5"] ;
521 -> 523 ;
524 [label="lat <= 47.553\nsquared_error = 6119843366.542\nsamples = 84\nvalue = 363263.798", fillcolor="#fef8f4"] ;
520 -> 524 ;
525 [label="lat <= 47.547\nsquared_error = 4941447081.69\nsamples = 39\nvalue = 340726.282", fillcolor="#fef9f5"] ;
524 -> 525 ;
526 [label="squared_error = 5037702913.516\nsamples = 23\nvalue = 359283.696", fillcolor="#fef8f4"] ;
525 -> 526 ;
527 [label="squared_error = 3596412500.0\nsamples = 16\nvalue = 314050.0", fillcolor="#fefaf6"] ;
525 -> 527 ;
528 [label="sqft_living15 <= 1470.0\nsquared_error = 6319386736.525\nsamples = 45\nvalue = 382796.311", fillcolor="#fdf7f3"] ;
524 -> 528 ;
529 [label="squared_error = 6376987354.34\nsamples = 29\nvalue = 399237.931", fillcolor="#fdf7f2"] ;
528 -> 529 ;
530 [label="squared_error = 4836952180.234\nsamples = 16\nvalue = 352995.875", fillcolor="#fef8f4"] ;
528 -> 530 ;
531 [label="view <= 0.5\nsquared_error = 9745061160.115\nsamples = 458\nvalue = 409604.408", fillcolor="#fdf6f1"] ;
507 -> 531 ;
532 [label="sqft_living <= 1465.0\nsquared_error = 8749976176.718\nsamples = 432\nvalue = 402198.505", fillcolor="#fdf6f2"] ;
531 -> 532 ;
533 [label="lat <= 47.542\nsquared_error = 6744151842.282\nsamples = 168\nvalue = 372180.56", fillcolor="#fdf7f3"] ;
532 -> 533 ;
534 [label="sqft_living <= 1310.0\nsquared_error = 4631896298.744\nsamples = 33\nvalue = 330885.727", fillcolor="#fef9f5"] ;
533 -> 534 ;
535 [label="squared_error = 5767410531.25\nsamples = 16\nvalue = 345727.5", fillcolor="#fef8f5"] ;
534 -> 535 ;
536 [label="squared_error = 3160731004.0\nsamples = 17\nvalue = 316917.0", fillcolor="#fef9f6"] ;
534 -> 536 ;
537 [label="lat <= 47.569\nsquared_error = 6741744129.163\nsamples = 135\nvalue = 382274.852", fillcolor="#fdf7f3"] ;
533 -> 537 ;
538 [label="sqft_above <= 1285.0\nsquared_error = 6188881246.81\nsamples = 111\nvalue = 374435.631", fillcolor="#fdf7f3"] ;
537 -> 538 ;
539 [label="bedrooms <= 2.5\nsquared_error = 4876073596.283\nsamples = 76\nvalue = 361462.921", fillcolor="#fef8f4"] ;
538 -> 539 ;
540 [label="squared_error = 4182520491.16\nsamples = 24\nvalue = 379711.917", fillcolor="#fdf7f3"] ;
539 -> 540 ;
541 [label="sqft_living <= 1265.0\nsquared_error = 4971530379.328\nsamples = 52\nvalue = 353040.308", fillcolor="#fef8f4"] ;
539 -> 541 ;
542 [label="squared_error = 4699938024.691\nsamples = 18\nvalue = 371855.556", fillcolor="#fdf8f3"] ;
541 -> 542 ;
543 [label="sqft_basement <= 315.0\nsquared_error = 4828673836.266\nsamples = 34\nvalue = 343079.294", fillcolor="#fef9f5"] ;
541 -> 543 ;
544 [label="squared_error = 5832440133.405\nsamples = 17\nvalue = 335955.647", fillcolor="#fef9f5"] ;
543 -> 544 ;
545 [label="squared_error = 3723414844.291\nsamples = 17\nvalue = 350202.941", fillcolor="#fef8f4"] ;
543 -> 545 ;
546 [label="sqft_living15 <= 1470.0\nsquared_error = 7880606830.111\nsamples = 35\nvalue = 402604.943", fillcolor="#fdf6f2"] ;
538 -> 546 ;
547 [label="squared_error = 4961189212.742\nsamples = 19\nvalue = 417786.316", fillcolor="#fdf6f1"] ;
546 -> 547 ;
548 [label="squared_error = 10748722805.684\nsamples = 16\nvalue = 384577.062", fillcolor="#fdf7f3"] ;
546 -> 548 ;
549 [label="squared_error = 7699986627.604\nsamples = 24\nvalue = 418531.25", fillcolor="#fdf6f1"] ;
537 -> 549 ;
550 [label="lat <= 47.567\nsquared_error = 9088098227.76\nsamples = 264\nvalue = 421300.833", fillcolor="#fdf6f0"] ;
532 -> 550 ;
551 [label="lat <= 47.548\nsquared_error = 8485817033.336\nsamples = 224\nvalue = 409285.446", fillcolor="#fdf6f1"] ;
550 -> 551 ;
552 [label="lat <= 47.541\nsquared_error = 8213285090.163\nsamples = 104\nvalue = 386323.279", fillcolor="#fdf7f2"] ;
551 -> 552 ;
553 [label="sqft_living <= 1675.0\nsquared_error = 12840942746.871\nsamples = 45\nvalue = 410183.467", fillcolor="#fdf6f1"] ;
552 -> 553 ;
554 [label="squared_error = 16361976760.409\nsamples = 29\nvalue = 436326.931", fillcolor="#fdf5f0"] ;
553 -> 554 ;
555 [label="squared_error = 2974918786.621\nsamples = 16\nvalue = 362798.438", fillcolor="#fef8f4"] ;
553 -> 555 ;
556 [label="lat <= 47.543\nsquared_error = 3918313773.7\nsamples = 59\nvalue = 368124.831", fillcolor="#fdf8f3"] ;
552 -> 556 ;
557 [label="squared_error = 5758367448.199\nsamples = 19\nvalue = 335017.895", fillcolor="#fef9f5"] ;
556 -> 557 ;
558 [label="sqft_living15 <= 1545.0\nsquared_error = 2276354797.734\nsamples = 40\nvalue = 383850.625", fillcolor="#fdf7f3"] ;
556 -> 558 ;
559 [label="squared_error = 2659946633.984\nsamples = 16\nvalue = 402846.875", fillcolor="#fdf6f2"] ;
558 -> 559 ;
560 [label="squared_error = 1619674113.498\nsamples = 24\nvalue = 371186.458", fillcolor="#fdf8f3"] ;
558 -> 560 ;
561 [label="sqft_above <= 1385.0\nsquared_error = 7869020028.575\nsamples = 120\nvalue = 429185.992", fillcolor="#fdf5f0"] ;
551 -> 561 ;
562 [label="sqft_above <= 1045.0\nsquared_error = 8087125574.568\nsamples = 68\nvalue = 411812.926", fillcolor="#fdf6f1"] ;
561 -> 562 ;
563 [label="lat <= 47.558\nsquared_error = 9240669052.157\nsamples = 36\nvalue = 437663.694", fillcolor="#fdf5f0"] ;
562 -> 563 ;
564 [label="squared_error = 6960753010.726\nsamples = 19\nvalue = 410549.895", fillcolor="#fdf6f1"] ;
563 -> 564 ;
565 [label="squared_error = 10048851465.052\nsamples = 17\nvalue = 467967.353", fillcolor="#fdf4ee"] ;
563 -> 565 ;
566 [label="sqft_basement <= 510.0\nsquared_error = 5191824828.84\nsamples = 32\nvalue = 382730.812", fillcolor="#fdf7f3"] ;
562 -> 566 ;
567 [label="squared_error = 5715272460.938\nsamples = 16\nvalue = 385656.25", fillcolor="#fdf7f2"] ;
566 -> 567 ;
568 [label="squared_error = 4651260827.609\nsamples = 16\nvalue = 379805.375", fillcolor="#fdf7f3"] ;
566 -> 568 ;
569 [label="sqft_living15 <= 1525.0\nsquared_error = 6672977089.16\nsamples = 52\nvalue = 451904.615", fillcolor="#fdf5ef"] ;
561 -> 569 ;
570 [label="squared_error = 6401372510.848\nsamples = 19\nvalue = 413931.684", fillcolor="#fdf6f1"] ;
569 -> 570 ;
571 [label="lat <= 47.553\nsquared_error = 5521145951.118\nsamples = 33\nvalue = 473767.818", fillcolor="#fdf4ee"] ;
569 -> 571 ;
572 [label="squared_error = 2900498575.585\nsamples = 17\nvalue = 494011.059", fillcolor="#fdf3ed"] ;
571 -> 572 ;
573 [label="squared_error = 7407570068.359\nsamples = 16\nvalue = 452259.375", fillcolor="#fdf5ef"] ;
571 -> 573 ;
574 [label="sqft_living15 <= 1620.0\nsquared_error = 7124975366.0\nsamples = 40\nvalue = 488587.0", fillcolor="#fdf3ed"] ;
550 -> 574 ;
575 [label="squared_error = 7647581695.66\nsamples = 24\nvalue = 475897.083", fillcolor="#fdf4ed"] ;
574 -> 575 ;
576 [label="squared_error = 5737188427.734\nsamples = 16\nvalue = 507621.875", fillcolor="#fcf3ec"] ;
574 -> 576 ;
577 [label="squared_error = 10225690676.073\nsamples = 26\nvalue = 532656.346", fillcolor="#fcf2ea"] ;
531 -> 577 ;
578 [label="grade <= 7.5\nsquared_error = 16518288179.282\nsamples = 165\nvalue = 500599.4", fillcolor="#fdf3ec"] ;
506 -> 578 ;
579 [label="sqft_living15 <= 2145.0\nsquared_error = 12882138946.983\nsamples = 86\nvalue = 447442.686", fillcolor="#fdf5ef"] ;
578 -> 579 ;
580 [label="sqft_living <= 1685.0\nsquared_error = 11109795864.894\nsamples = 60\nvalue = 431870.35", fillcolor="#fdf5f0"] ;
579 -> 580 ;
581 [label="sqft_living <= 1295.0\nsquared_error = 10165700018.365\nsamples = 33\nvalue = 402724.242", fillcolor="#fdf6f2"] ;
580 -> 581 ;
582 [label="squared_error = 16512975585.938\nsamples = 16\nvalue = 428093.75", fillcolor="#fdf6f0"] ;
581 -> 582 ;
583 [label="squared_error = 3015921314.879\nsamples = 17\nvalue = 378847.059", fillcolor="#fdf7f3"] ;
581 -> 583 ;
584 [label="squared_error = 9956418824.233\nsamples = 27\nvalue = 467493.37", fillcolor="#fdf4ee"] ;
580 -> 584 ;
585 [label="squared_error = 15121143879.438\nsamples = 26\nvalue = 483378.846", fillcolor="#fdf4ed"] ;
579 -> 585 ;
586 [label="sqft_living <= 1965.0\nsquared_error = 14052051945.073\nsamples = 79\nvalue = 558466.203", fillcolor="#fcf1e9"] ;
578 -> 586 ;
587 [label="lat <= 47.55\nsquared_error = 7094626499.597\nsamples = 61\nvalue = 533695.902", fillcolor="#fcf2ea"] ;
586 -> 587 ;
588 [label="squared_error = 6873094062.5\nsamples = 16\nvalue = 488500.0", fillcolor="#fdf3ed"] ;
587 -> 588 ;
589 [label="lat <= 47.563\nsquared_error = 6188877313.58\nsamples = 45\nvalue = 549765.556", fillcolor="#fcf1e9"] ;
587 -> 589 ;
590 [label="squared_error = 6749979168.975\nsamples = 19\nvalue = 606336.842", fillcolor="#fcefe6"] ;
589 -> 590 ;
591 [label="squared_error = 1731111394.231\nsamples = 26\nvalue = 508425.0", fillcolor="#fcf3ec"] ;
589 -> 591 ;
592 [label="squared_error = 28504119477.778\nsamples = 18\nvalue = 642410.0", fillcolor="#fceee4"] ;
586 -> 592 ;
593 [label="sqft_living <= 1398.0\nsquared_error = 20338709970.729\nsamples = 2250\nvalue = 533737.125", fillcolor="#fcf2ea"] ;
505 -> 593 ;
594 [label="sqft_living <= 835.0\nsquared_error = 13977713262.193\nsamples = 943\nvalue = 468521.421", fillcolor="#fdf4ee"] ;
593 -> 594 ;
595 [label="sqft_living <= 685.0\nsquared_error = 7299903318.28\nsamples = 86\nvalue = 370783.372", fillcolor="#fdf8f3"] ;
594 -> 595 ;
596 [label="squared_error = 9511789695.291\nsamples = 19\nvalue = 315663.158", fillcolor="#fef9f6"] ;
595 -> 596 ;
597 [label="lat <= 47.683\nsquared_error = 5566730613.533\nsamples = 67\nvalue = 386414.478", fillcolor="#fdf7f2"] ;
595 -> 597 ;
598 [label="lat <= 47.619\nsquared_error = 4133485900.249\nsamples = 47\nvalue = 404710.532", fillcolor="#fdf6f1"] ;
597 -> 598 ;
599 [label="squared_error = 5536766551.557\nsamples = 17\nvalue = 368526.176", fillcolor="#fdf8f3"] ;
598 -> 599 ;
600 [label="squared_error = 2175919358.333\nsamples = 30\nvalue = 425215.0", fillcolor="#fdf6f0"] ;
598 -> 600 ;
601 [label="squared_error = 6299570929.688\nsamples = 20\nvalue = 343418.75", fillcolor="#fef8f5"] ;
597 -> 601 ;
602 [label="sqft_living15 <= 1362.5\nsquared_error = 13593018012.874\nsamples = 857\nvalue = 478329.44", fillcolor="#fdf4ed"] ;
594 -> 602 ;
603 [label="lat <= 47.603\nsquared_error = 9601323544.196\nsamples = 351\nvalue = 443476.969", fillcolor="#fdf5ef"] ;
602 -> 603 ;
604 [label="sqft_living15 <= 1270.0\nsquared_error = 2958078795.805\nsamples = 47\nvalue = 367198.362", fillcolor="#fdf8f3"] ;
603 -> 604 ;
605 [label="squared_error = 2323275228.932\nsamples = 28\nvalue = 346631.179", fillcolor="#fef8f5"] ;
604 -> 605 ;
606 [label="squared_error = 2351529279.778\nsamples = 19\nvalue = 397507.895", fillcolor="#fdf7f2"] ;
604 -> 606 ;
607 [label="lat <= 47.69\nsquared_error = 9589768285.686\nsamples = 304\nvalue = 455270.043", fillcolor="#fdf5ef"] ;
603 -> 607 ;
608 [label="sqft_living15 <= 1255.0\nsquared_error = 8985305899.764\nsamples = 261\nvalue = 464415.854", fillcolor="#fdf4ee"] ;
607 -> 608 ;
609 [label="grade <= 6.5\nsquared_error = 7453860326.842\nsamples = 123\nvalue = 443845.772", fillcolor="#fdf5ef"] ;
608 -> 609 ;
610 [label="squared_error = 9845145826.276\nsamples = 28\nvalue = 406595.714", fillcolor="#fdf6f1"] ;
609 -> 610 ;
611 [label="sqft_above <= 965.0\nsquared_error = 6219555664.404\nsamples = 95\nvalue = 454824.737", fillcolor="#fdf5ef"] ;
609 -> 611 ;
612 [label="lat <= 47.674\nsquared_error = 4401116579.59\nsamples = 32\nvalue = 478645.312", fillcolor="#fdf4ed"] ;
611 -> 612 ;
613 [label="squared_error = 5433709411.621\nsamples = 16\nvalue = 504101.562", fillcolor="#fcf3ec"] ;
612 -> 613 ;
614 [label="squared_error = 2072482419.434\nsamples = 16\nvalue = 453189.062", fillcolor="#fdf5ef"] ;
612 -> 614 ;
615 [label="sqft_living <= 1095.0\nsquared_error = 6708599989.922\nsamples = 63\nvalue = 442725.397", fillcolor="#fdf5ef"] ;
611 -> 615 ;
616 [label="squared_error = 3910104362.881\nsamples = 19\nvalue = 403139.474", fillcolor="#fdf6f1"] ;
615 -> 616 ;
617 [label="sqft_above <= 1125.0\nsquared_error = 6948160479.081\nsamples = 44\nvalue = 459819.318", fillcolor="#fdf4ee"] ;
615 -> 617 ;
618 [label="squared_error = 7690552148.438\nsamples = 16\nvalue = 492218.75", fillcolor="#fdf3ed"] ;
617 -> 618 ;
619 [label="squared_error = 5581328096.301\nsamples = 28\nvalue = 441305.357", fillcolor="#fdf5ef"] ;
617 -> 619 ;
620 [label="lat <= 47.686\nsquared_error = 9637010905.388\nsamples = 138\nvalue = 482750.058", fillcolor="#fdf4ed"] ;
608 -> 620 ;
621 [label="sqft_above <= 925.0\nsquared_error = 8400694699.242\nsamples = 122\nvalue = 474802.77", fillcolor="#fdf4ee"] ;
620 -> 621 ;
622 [label="squared_error = 4586441162.109\nsamples = 16\nvalue = 416184.375", fillcolor="#fdf6f1"] ;
621 -> 622 ;
623 [label="sqft_basement <= 25.0\nsquared_error = 8379483859.16\nsamples = 106\nvalue = 483650.83", fillcolor="#fdf4ed"] ;
621 -> 623 ;
624 [label="sqft_living <= 1295.0\nsquared_error = 7462387000.669\nsamples = 82\nvalue = 474662.805", fillcolor="#fdf4ee"] ;
623 -> 624 ;
625 [label="bedrooms <= 2.5\nsquared_error = 6717849043.21\nsamples = 54\nvalue = 460655.556", fillcolor="#fdf4ee"] ;
624 -> 625 ;
626 [label="squared_error = 3481492283.951\nsamples = 27\nvalue = 435305.556", fillcolor="#fdf5f0"] ;
625 -> 626 ;
627 [label="squared_error = 8668960802.469\nsamples = 27\nvalue = 486005.556", fillcolor="#fdf4ed"] ;
625 -> 627 ;
628 [label="squared_error = 7790134907.525\nsamples = 28\nvalue = 501676.786", fillcolor="#fdf3ec"] ;
624 -> 628 ;
629 [label="squared_error = 10293836086.826\nsamples = 24\nvalue = 514359.917", fillcolor="#fcf3eb"] ;
623 -> 629 ;
630 [label="squared_error = 14910205990.234\nsamples = 16\nvalue = 543348.125", fillcolor="#fcf2ea"] ;
620 -> 630 ;
631 [label="sqft_living15 <= 1240.0\nsquared_error = 9669315824.689\nsamples = 43\nvalue = 399757.093", fillcolor="#fdf7f2"] ;
607 -> 631 ;
632 [label="squared_error = 8721703306.188\nsamples = 20\nvalue = 373872.25", fillcolor="#fdf7f3"] ;
631 -> 632 ;
633 [label="squared_error = 9404060955.009\nsamples = 23\nvalue = 422265.652", fillcolor="#fdf6f0"] ;
631 -> 633 ;
634 [label="sqft_living15 <= 2155.0\nsquared_error = 14934861361.309\nsamples = 506\nvalue = 502505.759", fillcolor="#fdf3ec"] ;
602 -> 634 ;
635 [label="lat <= 47.604\nsquared_error = 13806556971.124\nsamples = 467\nvalue = 494672.833", fillcolor="#fdf3ec"] ;
634 -> 635 ;
636 [label="sqft_above <= 1185.0\nsquared_error = 12336843290.08\nsamples = 68\nvalue = 447650.088", fillcolor="#fdf5ef"] ;
635 -> 636 ;
637 [label="sqft_living15 <= 1545.0\nsquared_error = 11719858297.004\nsamples = 45\nvalue = 421180.133", fillcolor="#fdf6f1"] ;
636 -> 637 ;
638 [label="squared_error = 6388257923.535\nsamples = 23\nvalue = 383132.826", fillcolor="#fdf7f3"] ;
637 -> 638 ;
639 [label="squared_error = 14198218389.3\nsamples = 22\nvalue = 460956.864", fillcolor="#fdf4ee"] ;
637 -> 639 ;
640 [label="squared_error = 9491029338.374\nsamples = 23\nvalue = 499439.13", fillcolor="#fdf3ec"] ;
636 -> 640 ;
641 [label="lat <= 47.686\nsquared_error = 13615976237.699\nsamples = 399\nvalue = 502686.734", fillcolor="#fdf3ec"] ;
635 -> 641 ;
642 [label="sqft_living <= 1205.0\nsquared_error = 13965576213.643\nsamples = 345\nvalue = 511114.562", fillcolor="#fcf3ec"] ;
641 -> 642 ;
643 [label="lat <= 47.667\nsquared_error = 12358663143.122\nsamples = 165\nvalue = 492626.721", fillcolor="#fdf3ed"] ;
642 -> 643 ;
644 [label="lat <= 47.638\nsquared_error = 17323685836.889\nsamples = 78\nvalue = 509701.333", fillcolor="#fcf3ec"] ;
643 -> 644 ;
645 [label="squared_error = 21566345353.798\nsamples = 31\nvalue = 471664.516", fillcolor="#fdf4ee"] ;
644 -> 645 ;
646 [label="lat <= 47.651\nsquared_error = 12941650518.758\nsamples = 47\nvalue = 534789.447", fillcolor="#fcf2ea"] ;
644 -> 646 ;
647 [label="squared_error = 11438964648.438\nsamples = 16\nvalue = 568568.75", fillcolor="#fcf1e8"] ;
646 -> 647 ;
648 [label="squared_error = 12824344708.096\nsamples = 31\nvalue = 517354.968", fillcolor="#fcf2eb"] ;
646 -> 648 ;
649 [label="sqft_above <= 1075.0\nsquared_error = 7411537443.719\nsamples = 87\nvalue = 477318.448", fillcolor="#fdf4ed"] ;
643 -> 649 ;
650 [label="sqft_above <= 995.0\nsquared_error = 7253067795.632\nsamples = 68\nvalue = 489389.015", fillcolor="#fdf3ed"] ;
649 -> 650 ;
651 [label="sqft_above <= 865.0\nsquared_error = 3680511381.192\nsamples = 44\nvalue = 471981.886", fillcolor="#fdf4ee"] ;
650 -> 651 ;
652 [label="squared_error = 3493651000.0\nsamples = 20\nvalue = 456800.0", fillcolor="#fdf5ef"] ;
651 -> 652 ;
653 [label="squared_error = 3484091364.248\nsamples = 24\nvalue = 484633.458", fillcolor="#fdf4ed"] ;
651 -> 653 ;
654 [label="squared_error = 12228795724.826\nsamples = 24\nvalue = 521302.083", fillcolor="#fcf2eb"] ;
650 -> 654 ;
655 [label="squared_error = 5591011188.565\nsamples = 19\nvalue = 434118.526", fillcolor="#fdf5f0"] ;
649 -> 655 ;
656 [label="sqft_above <= 1345.0\nsquared_error = 14838055778.265\nsamples = 180\nvalue = 528061.75", fillcolor="#fcf2eb"] ;
642 -> 656 ;
657 [label="sqft_living15 <= 1865.0\nsquared_error = 14260298111.743\nsamples = 151\nvalue = 539228.444", fillcolor="#fcf2ea"] ;
656 -> 657 ;
658 [label="sqft_living15 <= 1405.0\nsquared_error = 12414029986.626\nsamples = 131\nvalue = 527123.015", fillcolor="#fcf2eb"] ;
657 -> 658 ;
659 [label="squared_error = 16486742129.09\nsamples = 18\nvalue = 570020.278", fillcolor="#fcf1e8"] ;
658 -> 659 ;
660 [label="sqft_living15 <= 1665.0\nsquared_error = 11425461621.331\nsamples = 113\nvalue = 520289.823", fillcolor="#fcf2eb"] ;
658 -> 660 ;
661 [label="bathrooms <= 1.625\nsquared_error = 9876771837.139\nsamples = 82\nvalue = 507640.695", fillcolor="#fcf3ec"] ;
660 -> 661 ;
662 [label="sqft_above <= 1245.0\nsquared_error = 12005528549.615\nsamples = 42\nvalue = 524290.167", fillcolor="#fcf2eb"] ;
661 -> 662 ;
663 [label="squared_error = 10476296926.073\nsamples = 26\nvalue = 540807.654", fillcolor="#fcf2ea"] ;
662 -> 663 ;
664 [label="squared_error = 13326750633.438\nsamples = 16\nvalue = 497449.25", fillcolor="#fdf3ec"] ;
662 -> 664 ;
665 [label="sqft_living15 <= 1495.0\nsquared_error = 7044893735.938\nsamples = 40\nvalue = 490158.75", fillcolor="#fdf3ed"] ;
661 -> 665 ;
666 [label="squared_error = 6059023494.81\nsamples = 17\nvalue = 524555.882", fillcolor="#fcf2eb"] ;
665 -> 666 ;
667 [label="squared_error = 6252690746.692\nsamples = 23\nvalue = 464734.783", fillcolor="#fdf4ee"] ;
665 -> 667 ;
668 [label="squared_error = 13979265355.64\nsamples = 31\nvalue = 553748.806", fillcolor="#fcf1e9"] ;
660 -> 668 ;
669 [label="squared_error = 19106515859.0\nsamples = 20\nvalue = 618519.0", fillcolor="#fcefe6"] ;
657 -> 669 ;
670 [label="squared_error = 13816402278.478\nsamples = 29\nvalue = 469917.931", fillcolor="#fdf4ee"] ;
656 -> 670 ;
671 [label="sqft_living15 <= 1565.0\nsquared_error = 8029403516.09\nsamples = 54\nvalue = 448842.278", fillcolor="#fdf5ef"] ;
641 -> 671 ;
672 [label="lat <= 47.69\nsquared_error = 4308931179.184\nsamples = 34\nvalue = 418742.147", fillcolor="#fdf6f1"] ;
671 -> 672 ;
673 [label="squared_error = 5265553710.938\nsamples = 16\nvalue = 426156.25", fillcolor="#fdf6f0"] ;
672 -> 673 ;
674 [label="squared_error = 3366306540.472\nsamples = 18\nvalue = 412151.833", fillcolor="#fdf6f1"] ;
672 -> 674 ;
675 [label="squared_error = 10195584468.75\nsamples = 20\nvalue = 500012.5", fillcolor="#fdf3ec"] ;
671 -> 675 ;
676 [label="sqft_above <= 1105.0\nsquared_error = 18913535144.128\nsamples = 39\nvalue = 596300.026", fillcolor="#fcf0e7"] ;
634 -> 676 ;
677 [label="squared_error = 15248258741.0\nsamples = 20\nvalue = 541067.0", fillcolor="#fcf2ea"] ;
676 -> 677 ;
678 [label="squared_error = 16180208491.629\nsamples = 19\nvalue = 654440.053", fillcolor="#fbeee4"] ;
676 -> 678 ;
679 [label="sqft_living15 <= 2465.0\nsquared_error = 19645570544.237\nsamples = 1307\nvalue = 580790.23", fillcolor="#fcf0e8"] ;
593 -> 679 ;
680 [label="sqft_living15 <= 1695.0\nsquared_error = 16340344539.672\nsamples = 1247\nvalue = 571942.751", fillcolor="#fcf1e8"] ;
679 -> 680 ;
681 [label="sqft_living <= 1705.0\nsquared_error = 12333922501.573\nsamples = 663\nvalue = 544560.299", fillcolor="#fcf1ea"] ;
680 -> 681 ;
682 [label="lat <= 47.69\nsquared_error = 10521507320.252\nsamples = 450\nvalue = 525789.924", fillcolor="#fcf2eb"] ;
681 -> 682 ;
683 [label="lat <= 47.607\nsquared_error = 10345829665.141\nsamples = 411\nvalue = 533610.501", fillcolor="#fcf2ea"] ;
682 -> 683 ;
684 [label="bedrooms <= 3.5\nsquared_error = 8063546374.837\nsamples = 69\nvalue = 483489.058", fillcolor="#fdf4ed"] ;
683 -> 684 ;
685 [label="sqft_above <= 1170.0\nsquared_error = 7118371246.477\nsamples = 52\nvalue = 503496.058", fillcolor="#fdf3ec"] ;
684 -> 685 ;
686 [label="squared_error = 5545540930.194\nsamples = 19\nvalue = 465404.737", fillcolor="#fdf4ee"] ;
685 -> 686 ;
687 [label="sqft_above <= 1435.0\nsquared_error = 6707560657.759\nsamples = 33\nvalue = 525427.424", fillcolor="#fcf2eb"] ;
685 -> 687 ;
688 [label="squared_error = 5708436376.817\nsamples = 17\nvalue = 539682.647", fillcolor="#fcf2ea"] ;
687 -> 688 ;
689 [label="squared_error = 7323811523.438\nsamples = 16\nvalue = 510281.25", fillcolor="#fcf3ec"] ;
687 -> 689 ;
690 [label="squared_error = 5985103598.616\nsamples = 17\nvalue = 422291.176", fillcolor="#fdf6f0"] ;
684 -> 690 ;
691 [label="grade <= 7.5\nsquared_error = 10197194204.084\nsamples = 342\nvalue = 543722.722", fillcolor="#fcf1ea"] ;
683 -> 691 ;
692 [label="bathrooms <= 2.125\nsquared_error = 8999175223.159\nsamples = 218\nvalue = 528159.959", fillcolor="#fcf2eb"] ;
691 -> 692 ;
693 [label="grade <= 6.5\nsquared_error = 9324563277.643\nsamples = 170\nvalue = 541645.418", fillcolor="#fcf2ea"] ;
692 -> 693 ;
694 [label="squared_error = 7131357437.734\nsamples = 16\nvalue = 475469.875", fillcolor="#fdf4ee"] ;
693 -> 694 ;
695 [label="sqft_living15 <= 1340.0\nsquared_error = 9050175882.641\nsamples = 154\nvalue = 548520.799", fillcolor="#fcf1ea"] ;
693 -> 695 ;
696 [label="sqft_living15 <= 1255.0\nsquared_error = 10822037338.775\nsamples = 35\nvalue = 580775.714", fillcolor="#fcf0e8"] ;
695 -> 696 ;
697 [label="squared_error = 6335503892.734\nsamples = 17\nvalue = 543258.824", fillcolor="#fcf2ea"] ;
696 -> 697 ;
698 [label="squared_error = 12474526736.111\nsamples = 18\nvalue = 616208.333", fillcolor="#fcefe6"] ;
696 -> 698 ;
699 [label="sqft_living15 <= 1615.0\nsquared_error = 8133047932.812\nsamples = 119\nvalue = 539034.059", fillcolor="#fcf2ea"] ;
695 -> 699 ;
700 [label="lat <= 47.669\nsquared_error = 7531592023.389\nsamples = 91\nvalue = 526551.132", fillcolor="#fcf2eb"] ;
699 -> 700 ;
701 [label="sqft_living15 <= 1555.0\nsquared_error = 8134412011.019\nsamples = 33\nvalue = 505036.364", fillcolor="#fcf3ec"] ;
700 -> 701 ;
702 [label="squared_error = 9191176608.997\nsamples = 17\nvalue = 483952.941", fillcolor="#fdf4ed"] ;
701 -> 702 ;
703 [label="squared_error = 6037496093.75\nsamples = 16\nvalue = 527437.5", fillcolor="#fcf2eb"] ;
701 -> 703 ;
704 [label="sqft_living <= 1535.0\nsquared_error = 6775396462.069\nsamples = 58\nvalue = 538792.293", fillcolor="#fcf2ea"] ;
700 -> 704 ;
705 [label="sqft_living <= 1465.0\nsquared_error = 7440023527.702\nsamples = 37\nvalue = 557083.027", fillcolor="#fcf1e9"] ;
704 -> 705 ;
706 [label="squared_error = 4141273400.234\nsamples = 16\nvalue = 523320.125", fillcolor="#fcf2eb"] ;
705 -> 706 ;
707 [label="squared_error = 8423106020.408\nsamples = 21\nvalue = 582807.143", fillcolor="#fcf0e8"] ;
705 -> 707 ;
708 [label="squared_error = 3976390649.705\nsamples = 21\nvalue = 506565.762", fillcolor="#fcf3ec"] ;
704 -> 708 ;
709 [label="squared_error = 7935468022.959\nsamples = 28\nvalue = 579603.571", fillcolor="#fcf0e8"] ;
699 -> 709 ;
710 [label="sqft_basement <= 25.0\nsquared_error = 4921567030.165\nsamples = 48\nvalue = 480398.958", fillcolor="#fdf4ed"] ;
692 -> 710 ;
711 [label="squared_error = 2425880237.812\nsamples = 29\nvalue = 450739.655", fillcolor="#fdf5ef"] ;
710 -> 711 ;
712 [label="squared_error = 5338788213.296\nsamples = 19\nvalue = 525668.421", fillcolor="#fcf2eb"] ;
710 -> 712 ;
713 [label="sqft_above <= 1555.0\nsquared_error = 11128997997.076\nsamples = 124\nvalue = 571083.065", fillcolor="#fcf1e8"] ;
691 -> 713 ;
714 [label="lat <= 47.645\nsquared_error = 6510185372.551\nsamples = 89\nvalue = 545356.742", fillcolor="#fcf1ea"] ;
713 -> 714 ;
715 [label="squared_error = 9711832154.536\nsamples = 28\nvalue = 583787.5", fillcolor="#fcf0e8"] ;
714 -> 715 ;
716 [label="sqft_living15 <= 1475.0\nsquared_error = 4051463173.878\nsamples = 61\nvalue = 527716.393", fillcolor="#fcf2eb"] ;
714 -> 716 ;
717 [label="squared_error = 2814547654.321\nsamples = 27\nvalue = 500922.222", fillcolor="#fdf3ec"] ;
716 -> 717 ;
718 [label="sqft_above <= 1430.0\nsquared_error = 4010859083.045\nsamples = 34\nvalue = 548994.118", fillcolor="#fcf1e9"] ;
716 -> 718 ;
719 [label="squared_error = 4140669228.395\nsamples = 18\nvalue = 529022.222", fillcolor="#fcf2eb"] ;
718 -> 719 ;
720 [label="squared_error = 2911258281.25\nsamples = 16\nvalue = 571462.5", fillcolor="#fcf1e8"] ;
718 -> 720 ;
721 [label="lat <= 47.658\nsquared_error = 16911442355.102\nsamples = 35\nvalue = 636501.429", fillcolor="#fceee5"] ;
713 -> 721 ;
722 [label="squared_error = 21466515083.102\nsamples = 19\nvalue = 691671.053", fillcolor="#fbece2"] ;
721 -> 722 ;
723 [label="squared_error = 3595839843.75\nsamples = 16\nvalue = 570987.5", fillcolor="#fcf1e8"] ;
721 -> 723 ;
724 [label="sqft_above <= 1410.0\nsquared_error = 4935795493.097\nsamples = 39\nvalue = 443373.077", fillcolor="#fdf5ef"] ;
682 -> 724 ;
725 [label="squared_error = 5080329072.022\nsamples = 19\nvalue = 475397.368", fillcolor="#fdf4ee"] ;
724 -> 725 ;
726 [label="squared_error = 2898647500.0\nsamples = 20\nvalue = 412950.0", fillcolor="#fdf6f1"] ;
724 -> 726 ;
727 [label="grade <= 7.5\nsquared_error = 13846039813.662\nsamples = 213\nvalue = 584216.019", fillcolor="#fcf0e8"] ;
681 -> 727 ;
728 [label="lat <= 47.62\nsquared_error = 12033641783.056\nsamples = 152\nvalue = 561835.309", fillcolor="#fcf1e9"] ;
727 -> 728 ;
729 [label="sqft_living <= 1865.0\nsquared_error = 7019726073.407\nsamples = 38\nvalue = 504089.474", fillcolor="#fcf3ec"] ;
728 -> 729 ;
730 [label="squared_error = 5236042314.05\nsamples = 22\nvalue = 528636.364", fillcolor="#fcf2eb"] ;
729 -> 730 ;
731 [label="squared_error = 7504589531.25\nsamples = 16\nvalue = 470337.5", fillcolor="#fdf4ee"] ;
729 -> 731 ;
732 [label="lat <= 47.683\nsquared_error = 12222910788.213\nsamples = 114\nvalue = 581083.921", fillcolor="#fcf0e8"] ;
728 -> 732 ;
733 [label="sqft_living15 <= 1565.0\nsquared_error = 14202150705.817\nsamples = 80\nvalue = 600140.212", fillcolor="#fcf0e7"] ;
732 -> 733 ;
734 [label="sqft_living15 <= 1490.0\nsquared_error = 14932658512.784\nsamples = 54\nvalue = 586337.352", fillcolor="#fcf0e7"] ;
733 -> 734 ;
735 [label="sqft_living <= 1845.0\nsquared_error = 14554085756.519\nsamples = 38\nvalue = 612322.816", fillcolor="#fcefe6"] ;
734 -> 735 ;
736 [label="squared_error = 9862294146.176\nsamples = 22\nvalue = 578421.227", fillcolor="#fcf0e8"] ;
735 -> 736 ;
737 [label="squared_error = 17252058593.75\nsamples = 16\nvalue = 658937.5", fillcolor="#fbede3"] ;
735 -> 737 ;
738 [label="squared_error = 10419263427.734\nsamples = 16\nvalue = 524621.875", fillcolor="#fcf2eb"] ;
734 -> 738 ;
739 [label="squared_error = 11467424556.213\nsamples = 26\nvalue = 628807.692", fillcolor="#fcefe5"] ;
733 -> 739 ;
740 [label="sqft_basement <= 670.0\nsquared_error = 4700947259.948\nsamples = 34\nvalue = 536245.588", fillcolor="#fcf2ea"] ;
732 -> 740 ;
741 [label="squared_error = 4120965898.438\nsamples = 16\nvalue = 547556.25", fillcolor="#fcf1ea"] ;
740 -> 741 ;
742 [label="squared_error = 5001688402.778\nsamples = 18\nvalue = 526191.667", fillcolor="#fcf2eb"] ;
740 -> 742 ;
743 [label="sqft_living <= 1845.0\nsquared_error = 14003938345.668\nsamples = 61\nvalue = 639984.344", fillcolor="#fceee4"] ;
727 -> 743 ;
744 [label="squared_error = 10702976435.244\nsamples = 26\nvalue = 594763.423", fillcolor="#fcf0e7"] ;
743 -> 744 ;
745 [label="bathrooms <= 2.375\nsquared_error = 13808520910.485\nsamples = 35\nvalue = 673577.029", fillcolor="#fbede3"] ;
743 -> 745 ;
746 [label="squared_error = 15365080625.0\nsamples = 18\nvalue = 695641.667", fillcolor="#fbece1"] ;
745 -> 746 ;
747 [label="squared_error = 11099103357.426\nsamples = 17\nvalue = 650214.471", fillcolor="#fbeee4"] ;
745 -> 747 ;
748 [label="bathrooms <= 1.625\nsquared_error = 19071128514.155\nsamples = 584\nvalue = 603029.336", fillcolor="#fcefe7"] ;
680 -> 748 ;
749 [label="grade <= 7.5\nsquared_error = 29366284651.542\nsamples = 131\nvalue = 667962.427", fillcolor="#fbede3"] ;
748 -> 749 ;
750 [label="sqft_living <= 1795.0\nsquared_error = 23532596692.727\nsamples = 92\nvalue = 629379.109", fillcolor="#fceee5"] ;
749 -> 750 ;
751 [label="sqft_living15 <= 2135.0\nsquared_error = 22381706010.48\nsamples = 73\nvalue = 607114.767", fillcolor="#fcefe6"] ;
750 -> 751 ;
752 [label="lat <= 47.67\nsquared_error = 18251418965.408\nsamples = 56\nvalue = 584395.143", fillcolor="#fcf0e8"] ;
751 -> 752 ;
753 [label="sqft_living <= 1555.0\nsquared_error = 23817488220.215\nsamples = 32\nvalue = 617182.812", fillcolor="#fcefe6"] ;
752 -> 753 ;
754 [label="squared_error = 27324899443.359\nsamples = 16\nvalue = 579790.625", fillcolor="#fcf0e8"] ;
753 -> 754 ;
755 [label="squared_error = 17513725625.0\nsamples = 16\nvalue = 654575.0", fillcolor="#fbeee4"] ;
753 -> 755 ;
756 [label="squared_error = 7485451530.438\nsamples = 24\nvalue = 540678.25", fillcolor="#fcf2ea"] ;
752 -> 756 ;
757 [label="squared_error = 28685802906.574\nsamples = 17\nvalue = 681955.882", fillcolor="#fbede2"] ;
751 -> 757 ;
758 [label="squared_error = 18732480609.418\nsamples = 19\nvalue = 714921.053", fillcolor="#fbece0"] ;
750 -> 758 ;
759 [label="sqft_above <= 1525.0\nsquared_error = 31331959579.224\nsamples = 39\nvalue = 758979.487", fillcolor="#fbeade"] ;
749 -> 759 ;
760 [label="squared_error = 31780091468.144\nsamples = 19\nvalue = 701089.474", fillcolor="#fbece1"] ;
759 -> 760 ;
761 [label="squared_error = 24698036875.0\nsamples = 20\nvalue = 813975.0", fillcolor="#fae8db"] ;
759 -> 761 ;
762 [label="view <= 0.5\nsquared_error = 14522060213.318\nsamples = 453\nvalue = 584251.775", fillcolor="#fcf0e8"] ;
748 -> 762 ;
763 [label="sqft_living <= 1565.0\nsquared_error = 13171712910.836\nsamples = 418\nvalue = 575226.227", fillcolor="#fcf0e8"] ;
762 -> 763 ;
764 [label="grade <= 7.5\nsquared_error = 11661484133.935\nsamples = 67\nvalue = 530719.373", fillcolor="#fcf2ea"] ;
763 -> 764 ;
765 [label="sqft_living <= 1465.0\nsquared_error = 13118413940.415\nsamples = 48\nvalue = 549423.708", fillcolor="#fcf1e9"] ;
764 -> 765 ;
766 [label="squared_error = 16569607872.889\nsamples = 18\nvalue = 521924.333", fillcolor="#fcf2eb"] ;
765 -> 766 ;
767 [label="squared_error = 10321730580.556\nsamples = 30\nvalue = 565923.333", fillcolor="#fcf1e9"] ;
765 -> 767 ;
768 [label="squared_error = 4864130907.479\nsamples = 19\nvalue = 483466.316", fillcolor="#fdf4ed"] ;
764 -> 768 ;
769 [label="bathrooms <= 2.125\nsquared_error = 13009701913.828\nsamples = 351\nvalue = 583721.838", fillcolor="#fcf0e8"] ;
763 -> 769 ;
770 [label="lat <= 47.631\nsquared_error = 16121555985.205\nsamples = 173\nvalue = 606112.879", fillcolor="#fcefe6"] ;
769 -> 770 ;
771 [label="sqft_above <= 1665.0\nsquared_error = 16199170936.92\nsamples = 77\nvalue = 583671.429", fillcolor="#fcf0e8"] ;
770 -> 771 ;
772 [label="sqft_living <= 1765.0\nsquared_error = 11767117202.216\nsamples = 38\nvalue = 547976.316", fillcolor="#fcf1ea"] ;
771 -> 772 ;
773 [label="squared_error = 12187346875.0\nsamples = 20\nvalue = 529875.0", fillcolor="#fcf2eb"] ;
772 -> 773 ;
774 [label="squared_error = 10531615709.877\nsamples = 18\nvalue = 568088.889", fillcolor="#fcf1e8"] ;
772 -> 774 ;
775 [label="sqft_above <= 1800.0\nsquared_error = 18066473267.587\nsamples = 39\nvalue = 618451.282", fillcolor="#fcefe6"] ;
771 -> 775 ;
776 [label="squared_error = 18074534971.645\nsamples = 23\nvalue = 651326.087", fillcolor="#fbeee4"] ;
775 -> 776 ;
777 [label="squared_error = 14268028085.938\nsamples = 16\nvalue = 571193.75", fillcolor="#fcf1e8"] ;
775 -> 777 ;
778 [label="lat <= 47.653\nsquared_error = 15331361306.519\nsamples = 96\nvalue = 624112.792", fillcolor="#fcefe5"] ;
770 -> 778 ;
779 [label="sqft_living15 <= 1990.0\nsquared_error = 11072705900.243\nsamples = 36\nvalue = 670970.75", fillcolor="#fbede3"] ;
778 -> 779 ;
780 [label="squared_error = 8687590350.0\nsamples = 20\nvalue = 640670.0", fillcolor="#fceee4"] ;
779 -> 780 ;
781 [label="squared_error = 11471844383.34\nsamples = 16\nvalue = 708846.688", fillcolor="#fbece1"] ;
779 -> 781 ;
782 [label="sqft_above <= 1605.0\nsquared_error = 15778713021.483\nsamples = 60\nvalue = 595998.017", fillcolor="#fcf0e7"] ;
778 -> 782 ;
783 [label="sqft_basement <= 795.0\nsquared_error = 15865472502.238\nsamples = 37\nvalue = 622019.757", fillcolor="#fcefe5"] ;
782 -> 783 ;
784 [label="squared_error = 21718637788.247\nsamples = 18\nvalue = 647123.556", fillcolor="#fbeee4"] ;
783 -> 784 ;
785 [label="squared_error = 9157726786.377\nsamples = 19\nvalue = 598237.211", fillcolor="#fcf0e7"] ;
783 -> 785 ;
786 [label="squared_error = 12797497438.563\nsamples = 23\nvalue = 554136.957", fillcolor="#fcf1e9"] ;
782 -> 786 ;
787 [label="sqft_basement <= 60.0\nsquared_error = 9024395776.15\nsamples = 178\nvalue = 561959.758", fillcolor="#fcf1e9"] ;
769 -> 787 ;
788 [label="bedrooms <= 3.5\nsquared_error = 9495615386.617\nsamples = 90\nvalue = 543054.222", fillcolor="#fcf2ea"] ;
787 -> 788 ;
789 [label="sqft_living <= 1895.0\nsquared_error = 7250467390.122\nsamples = 70\nvalue = 530986.857", fillcolor="#fcf2ea"] ;
788 -> 789 ;
790 [label="sqft_above <= 1785.0\nsquared_error = 8357282320.66\nsamples = 48\nvalue = 521487.083", fillcolor="#fcf2eb"] ;
789 -> 790 ;
791 [label="squared_error = 9698754250.78\nsamples = 31\nvalue = 538075.161", fillcolor="#fcf2ea"] ;
790 -> 791 ;
792 [label="squared_error = 4494305743.945\nsamples = 17\nvalue = 491238.235", fillcolor="#fdf3ed"] ;
790 -> 792 ;
793 [label="squared_error = 4209099359.504\nsamples = 22\nvalue = 551713.636", fillcolor="#fcf1e9"] ;
789 -> 793 ;
794 [label="squared_error = 15060097900.0\nsamples = 20\nvalue = 585290.0", fillcolor="#fcf0e7"] ;
788 -> 794 ;
795 [label="sqft_above <= 1395.0\nsquared_error = 7803073915.624\nsamples = 88\nvalue = 581294.966", fillcolor="#fcf0e8"] ;
787 -> 795 ;
796 [label="sqft_living15 <= 1895.0\nsquared_error = 7592738228.784\nsamples = 54\nvalue = 560621.648", fillcolor="#fcf1e9"] ;
795 -> 796 ;
797 [label="squared_error = 4624570103.148\nsamples = 20\nvalue = 597260.95", fillcolor="#fcf0e7"] ;
796 -> 797 ;
798 [label="lat <= 47.658\nsquared_error = 8084538237.457\nsamples = 34\nvalue = 539069.118", fillcolor="#fcf2ea"] ;
796 -> 798 ;
799 [label="squared_error = 5414413085.938\nsamples = 16\nvalue = 505593.75", fillcolor="#fcf3ec"] ;
798 -> 799 ;
800 [label="squared_error = 8576481180.556\nsamples = 18\nvalue = 568825.0", fillcolor="#fcf1e8"] ;
798 -> 800 ;
801 [label="sqft_living15 <= 1850.0\nsquared_error = 6380269183.349\nsamples = 34\nvalue = 614129.059", fillcolor="#fcefe6"] ;
795 -> 801 ;
802 [label="squared_error = 5016170263.111\nsamples = 18\nvalue = 599049.333", fillcolor="#fcf0e7"] ;
801 -> 802 ;
